{"learner":{"attributes":{},"feature_names":[],"feature_types":[],"gradient_booster":{"model":{"gbtree_model_param":{"num_parallel_tree":"1","num_trees":"200"},"iteration_indptr":[0,1,2,3,4,5,6,7,8,9,10,11,12,13,14,15,16,17,18,19,20,21,22,23,24,25,26,27,28,29,30,31,32,33,34,35,36,37,38,39,40,41,42,43,44,45,46,47,48,49,50,51,52,53,54,55,56,57,58,59,60,61,62,63,64,65,66,67,68,69,70,71,72,73,74,75,76,77,78,79,80,81,82,83,84,85,86,87,88,89,90,91,92,93,94,95,96,97,98,99,100,101,102,103,104,105,106,107,108,109,110,111,112,113,114,115,116,117,118,119,120,121,122,123,124,125,126,127,128,129,130,131,132,133,134,135,136,137,138,139,140,141,142,143,144,145,146,147,148,149,150,151,152,153,154,155,156,157,158,159,160,161,162,163,164,165,166,167,168,169,170,171,172,173,174,175,176,177,178,179,180,181,182,183,184,185,186,187,188,189,190,191,192,193,194,195,196,197,198,199,200],"tree_info":[0,0,0,0,0,0,0,0,0,0,0,0,0,0,0,0,0,0,0,0,0,0,0,0,0,0,0,0,0,0,0,0,0,0,0,0,0,0,0,0,0,0,0,0,0,0,0,0,0,0,0,0,0,0,0,0,0,0,0,0,0,0,0,0,0,0,0,0,0,0,0,0,0,0,0,0,0,0,0,0,0,0,0,0,0,0,0,0,0,0,0,0,0,0,0,0,0,0,0,0,0,0,0,0,0,0,0,0,0,0,0,0,0,0,0,0,0,0,0,0,0,0,0,0,0,0,0,0,0,0,0,0,0,0,0,0,0,0,0,0,0,0,0,0,0,0,0,0,0,0,0,0,0,0,0,0,0,0,0,0,0,0,0,0,0,0,0,0,0,0,0,0,0,0,0,0,0,0,0,0,0,0,0,0,0,0,0,0,0,0,0,0,0,0,0,0,0,0,0,0],"trees":[{"base_weights":[-2.3610548E-8,3.0040327E-2,-3.9805967E-2,4.0424325E-2,1.7073464E-2,-2.500948E-2,-5.0435215E-2,3.723748E-2,4.9304824E-2,2.3303218E-2,7.630719E-3,-1.2751388E-2,-3.0863842E-2,-4.3738745E-2,-5.3845685E-2,4.3276653E-2,3.3827003E-2,5.999062E-2,4.537516E-2,1.8990537E-2,2.830704E-2,-1.8337285E-3,8.2411235E-3,-2.7968483E-2,-8.959442E-3,-3.338211E-2,-1.8922431E-2,-4.5130674E-2,-2.8494054E-2,-5.8403965E-2,-4.602478E-2,2.4653415E-3,2.0058565E-3,1.4769577E-3,1.8634236E-3,1.4162714E-3,3.0751126E-3,2.119626E-3,2.7626918E-3,-2.0002367E-3,9.6371025E-4,1.1086207E-3,1.5872939E-3,5.213928E-4,-5.602428E-5,3.3301712E-4,-1.479188E-3,-1.977178E-4,-7.3959987E-4,-1.9625404E-3,-1.5111872E-3,-1.2600808E-3,-5.248533E-4,-2.2765468E-3,-5.0037925E-4,-7.3854736E-4,-2.423515E-3,-3.0344676E-3,-2.4052311E-3,-2.4478408E-3,-1.679711E-3],"categories":[],"categories_nodes":[],"categories_segments":[],"categories_sizes":[],"default_left":[0,0,0,0,0,0,0,0,0,0,0,0,0,0,0,0,0,0,0,0,0,0,0,0,0,0,0,0,0,0,0,0,0,0,0,0,0,0,0,0,0,0,0,0,0,0,0,0,0,0,0,0,0,0,0,0,0,0,0,0,0],"id":0,"left_children":[1,3,5,7,9,11,13,15,17,19,21,23,25,27,29,31,33,35,37,39,41,-1,43,45,47,49,51,53,55,57,59,-1,-1,-1,-1,-1,-1,-1,-1,-1,-1,-1,-1,-1,-1,-1,-1,-1,-1,-1,-1,-1,-1,-1,-1,-1,-1,-1,-1,-1,-1],"loss_changes":[5.054581E0,3.2367635E-1,2.8466535E-1,3.600216E-2,6.2942475E-2,5.4290116E-2,2.1784782E-2,1.8885374E-2,1.197499E-2,1.3403028E-2,1.1877129E-2,1.4059611E-2,1.4855236E-2,6.395519E-3,2.2124052E-2,4.74751E-3,8.284271E-3,2.6137233E-3,5.318463E-3,6.6283196E-3,5.561605E-3,0E0,8.671055E-3,2.9378608E-3,5.7799947E-3,6.67274E-3,4.602663E-3,4.1835904E-3,8.330541E-3,7.343173E-3,7.867932E-3,0E0,0E0,0E0,0E0,0E0,0E0,0E0,0E0,0E0,0E0,0E0,0E0,0E0,0E0,0E0,0E0,0E0,0E0,0E0,0E0,0E0,0E0,0E0,0E0,0E0,0E0,0E0,0E0,0E0,0E0],"parents":[2147483647,0,0,1,1,2,2,3,3,4,4,5,5,6,6,7,7,8,8,9,9,10,10,11,11,12,12,13,13,14,14,15,15,16,16,17,17,18,18,19,19,20,20,22,22,23,23,24,24,25,25,26,26,27,27,28,28,29,29,30,30],"right_children":[2,4,6,8,10,12,14,16,18,20,22,24,26,28,30,32,34,36,38,40,42,-1,44,46,48,50,52,54,56,58,60,-1,-1,-1,-1,-1,-1,-1,-1,-1,-1,-1,-1,-1,-1,-1,-1,-1,-1,-1,-1,-1,-1,-1,-1,-1,-1,-1,-1,-1,-1],"split_conditions":[8.23425E-2,-8.0037534E-1,8.372108E-1,3.655319E-1,-3.6957788E-1,4.0141052E-1,1.1490525E0,-1.0977645E0,-1.1650245E0,2.7693644E-1,-5.4006165E-1,-7.89607E-1,-2.45994E-2,-7.092991E-2,-4.2258176E-1,-1.2206112E0,2.4622446E-1,-4.871821E-1,2.3513913E0,-1.1737797E0,-1.947732E-1,-1.8337285E-3,-8.263927E-3,-1.0506026E0,-2.721149E-1,-8.6778295E-1,-3.2555154E-1,7.459922E-1,-2.0869742E-1,-5.1599115E-1,-2.9821527E-1,2.4653415E-3,2.0058565E-3,1.4769577E-3,1.8634236E-3,1.4162714E-3,3.0751126E-3,2.119626E-3,2.7626918E-3,-2.0002367E-3,9.6371025E-4,1.1086207E-3,1.5872939E-3,5.213928E-4,-5.602428E-5,3.3301712E-4,-1.479188E-3,-1.977178E-4,-7.3959987E-4,-1.9625404E-3,-1.5111872E-3,-1.2600808E-3,-5.248533E-4,-2.2765468E-3,-5.0037925E-4,-7.3854736E-4,-2.423515E-3,-3.0344676E-3,-2.4052311E-3,-2.4478408E-3,-1.679711E-3],"split_indices":[0,0,0,5,0,0,0,0,0,1,2,1,1,2,2,0,1,3,1,4,3,0,0,4,5,1,4,1,3,1,1,0,0,0,0,0,0,0,0,0,0,0,0,0,0,0,0,0,0,0,0,0,0,0,0,0,0,0,0,0,0],"split_type":[0,0,0,0,0,0,0,0,0,0,0,0,0,0,0,0,0,0,0,0,0,0,0,0,0,0,0,0,0,0,0,0,0,0,0,0,0,0,0,0,0,0,0,0,0,0,0,0,0,0,0,0,0,0,0,0,0,0,0,0,0],"sum_hessian":[4.225E3,2.408E3,1.817E3,1.336E3,1.072E3,7.61E2,1.056E3,9.87E2,3.49E2,6.45E2,4.27E2,2.47E2,5.14E2,3.61E2,6.95E2,3.52E2,6.35E2,9E1,2.59E2,3.49E2,2.96E2,5E0,4.22E2,4.8E1,1.99E2,4.23E2,9.1E1,3.29E2,3.2E1,4.35E2,2.6E2,1.16E2,2.36E2,2.87E2,3.48E2,5E0,8.5E1,2.03E2,5.6E1,1E0,3.48E2,1.09E2,1.87E2,3.42E2,8E1,2E0,4.6E1,1.08E2,9.1E1,1.44E2,2.79E2,5.1E1,4E1,3.25E2,4E0,2E1,1.2E1,3.52E2,8.3E1,2.08E2,5.2E1],"tree_param":{"num_deleted":"0","num_feature":"6","num_nodes":"61","size_leaf_vector":"1"}},{"base_weights":[-1.2909356E-6,2.7866697E-2,-3.876112E-2,3.8415965E-2,1.5282336E-2,-2.5097799E-2,-4.7928125E-2,4.3287534E-2,3.3122297E-2,2.056092E-2,2.5898903E-3,-1.3960859E-2,-2.933084E-2,-4.156822E-2,-5.1167145E-2,3.892766E-2,5.0442975E-2,3.2195784E-2,2.6971046E-3,1.6687071E-2,2.5945479E-2,-1.943562E-2,4.220948E-3,-2.8183637E-2,-9.950985E-3,-3.172118E-2,-1.7995689E-2,-4.288256E-2,-2.716516E-2,-5.5496242E-2,-4.3739352E-2,2.2724408E-3,1.8206928E-3,1.5752023E-3,2.5948004E-3,9.2202984E-4,1.6323617E-3,-1.9502313E-3,8.4457995E-4,1.00642E-3,1.4742792E-3,1.6726107E-4,-1.7159696E-3,3.642177E-4,-3.9967366E-5,-1.828893E-3,-8.8239444E-4,-5.4052356E-4,1.2706056E-3,-2.9279087E-3,-1.5499033E-3,-1.1507653E-3,-4.1618934E-4,-2.163069E-3,-4.80364E-4,-7.033778E-4,-2.31166E-3,-2.6579793E-3,-3.2850073E-3,-2.5589105E-3,-1.9438736E-3],"categories":[],"categories_nodes":[],"categories_segments":[],"categories_sizes":[],"default_left":[0,0,0,0,0,0,0,0,0,0,0,0,0,0,0,0,0,0,0,0,0,0,0,0,0,0,0,0,0,0,0,0,0,0,0,0,0,0,0,0,0,0,0,0,0,0,0,0,0,0,0,0,0,0,0,0,0,0,0,0,0],"id":1,"left_children":[1,3,5,7,9,11,13,15,17,19,21,23,25,27,29,31,33,35,-1,37,39,41,43,45,47,49,51,53,55,57,59,-1,-1,-1,-1,-1,-1,-1,-1,-1,-1,-1,-1,-1,-1,-1,-1,-1,-1,-1,-1,-1,-1,-1,-1,-1,-1,-1,-1,-1,-1],"loss_changes":[4.5658298E0,3.258593E-1,2.2024226E-1,3.304541E-2,7.518563E-2,3.3156455E-2,1.9647121E-2,1.9655824E-2,1.0705173E-2,1.6108215E-2,1.1973173E-2,1.1011787E-2,1.3383001E-2,5.687952E-3,1.9952893E-2,5.4759383E-3,5.492449E-3,3.2479763E-3,0E0,5.9440434E-3,6.202221E-3,7.913297E-3,4.7579957E-3,3.1573735E-3,5.0161956E-3,6.4130127E-3,4.274957E-3,3.7441254E-3,7.5912178E-3,6.902814E-3,7.4498355E-3,0E0,0E0,0E0,0E0,0E0,0E0,0E0,0E0,0E0,0E0,0E0,0E0,0E0,0E0,0E0,0E0,0E0,0E0,0E0,0E0,0E0,0E0,0E0,0E0,0E0,0E0,0E0,0E0,0E0,0E0],"parents":[2147483647,0,0,1,1,2,2,3,3,4,4,5,5,6,6,7,7,8,8,9,9,10,10,11,11,12,12,13,13,14,14,15,15,16,16,17,17,19,19,20,20,21,21,22,22,23,23,24,24,25,25,26,26,27,27,28,28,29,29,30,30],"right_children":[2,4,6,8,10,12,14,16,18,20,22,24,26,28,30,32,34,36,-1,38,40,42,44,46,48,50,52,54,56,58,60,-1,-1,-1,-1,-1,-1,-1,-1,-1,-1,-1,-1,-1,-1,-1,-1,-1,-1,-1,-1,-1,-1,-1,-1,-1,-1,-1,-1,-1,-1],"split_conditions":[1.7350478E-1,-8.0037534E-1,8.372108E-1,-1.0349514E0,-2.0837627E-1,4.0141052E-1,1.1490525E0,1.4718242E-1,2.3513913E0,2.7693644E-1,-4.901032E-1,-7.89607E-1,-2.45994E-2,-7.092991E-2,-4.2258176E-1,-1.2100497E0,-4.871821E-1,-4.0844765E-1,2.6971046E-3,-1.1737797E0,-1.6692473E-1,-4.0260756E-1,-8.263927E-3,-6.0904735E-1,1.122912E0,-4.3016076E-1,-2.3037322E-1,7.459922E-1,-2.0869742E-1,-2.9224283E-1,-4.970583E-1,2.2724408E-3,1.8206928E-3,1.5752023E-3,2.5948004E-3,9.2202984E-4,1.6323617E-3,-1.9502313E-3,8.4457995E-4,1.00642E-3,1.4742792E-3,1.6726107E-4,-1.7159696E-3,3.642177E-4,-3.9967366E-5,-1.828893E-3,-8.8239444E-4,-5.4052356E-4,1.2706056E-3,-2.9279087E-3,-1.5499033E-3,-1.1507653E-3,-4.1618934E-4,-2.163069E-3,-4.80364E-4,-7.033778E-4,-2.31166E-3,-2.6579793E-3,-3.2850073E-3,-2.5589105E-3,-1.9438736E-3],"split_indices":[0,0,0,0,0,0,0,5,1,1,2,1,1,2,2,0,3,5,0,4,3,5,0,4,1,5,2,1,3,3,4,0,0,0,0,0,0,0,0,0,0,0,0,0,0,0,0,0,0,0,0,0,0,0,0,0,0,0,0,0,0],"split_type":[0,0,0,0,0,0,0,0,0,0,0,0,0,0,0,0,0,0,0,0,0,0,0,0,0,0,0,0,0,0,0,0,0,0,0,0,0,0,0,0,0,0,0,0,0,0,0,0,0,0,0,0,0,0,0,0,0,0,0,0,0],"sum_hessian":[4.225E3,2.458E3,1.767E3,1.336E3,1.122E3,7.11E2,1.056E3,6.92E2,6.44E2,7.92E2,3.3E2,1.97E2,5.14E2,3.61E2,6.95E2,4.34E2,2.58E2,6.19E2,2.5E1,4.63E2,3.29E2,2.2E1,3.08E2,4.2E1,1.55E2,4.23E2,9.1E1,3.29E2,3.2E1,4.35E2,2.6E2,1.16E2,3.18E2,2E1,2.38E2,2.1E1,5.98E2,1E0,4.62E2,1.27E2,2.02E2,9E0,1.3E1,1.91E2,1.17E2,2.2E1,2E1,1.52E2,3E0,9E0,4.14E2,5.9E1,3.2E1,3.25E2,4E0,2E1,1.2E1,3.59E2,7.6E1,9.9E1,1.61E2],"tree_param":{"num_deleted":"0","num_feature":"6","num_nodes":"61","size_leaf_vector":"1"}},{"base_weights":[-3.7063342E-6,2.6478922E-2,-3.6836725E-2,3.4034353E-2,1.0562931E-2,-2.3854189E-2,-4.554697E-2,3.8924195E-2,2.6186572E-2,1.5875189E-2,1.6856068E-3,-1.3272842E-2,-2.7876038E-2,-3.9505456E-2,-4.862381E-2,3.528734E-2,4.5267038E-2,2.2184145E-2,2.9432373E-2,9.8134475E-3,1.7956953E-2,-2.30867E-2,3.5508329E-3,-2.6837504E-2,-9.4487835E-3,-3.4609064E-2,-2.396433E-2,-4.074646E-2,-2.5898261E-2,-5.2735087E-2,-4.156964E-2,2.1597906E-3,1.6754245E-3,2.6860936E-3,2.0788396E-3,-1.9014761E-3,1.1260876E-3,1.3688835E-3,1.7100001E-3,2.7747496E-4,6.4047484E-4,7.476271E-4,1.0610383E-3,-1.666043E-4,-1.6363001E-3,7.5409625E-5,5.3214014E-4,3.828804E-4,-1.4353482E-3,-5.1367545E-4,1.2229584E-3,-1.4052523E-3,-2.037245E-3,-1.355695E-3,-7.840164E-4,-2.057638E-3,-5.9737416E-4,-6.698828E-4,-2.2049686E-3,-2.7451462E-3,-2.1498608E-3,-2.2165047E-3,-1.494987E-3],"categories":[],"categories_nodes":[],"categories_segments":[],"categories_sizes":[],"default_left":[0,0,0,0,0,0,0,0,0,0,0,0,0,0,0,0,0,0,0,0,0,0,0,0,0,0,0,0,0,0,0,0,0,0,0,0,0,0,0,0,0,0,0,0,0,0,0,0,0,0,0,0,0,0,0,0,0,0,0,0,0,0,0],"id":2,"left_children":[1,3,5,7,9,11,13,15,17,19,21,23,25,27,29,31,33,35,37,39,41,43,45,47,49,51,53,55,57,59,61,-1,-1,-1,-1,-1,-1,-1,-1,-1,-1,-1,-1,-1,-1,-1,-1,-1,-1,-1,-1,-1,-1,-1,-1,-1,-1,-1,-1,-1,-1,-1,-1],"loss_changes":[4.123164E0,2.9534054E-1,1.9884086E-1,6.295085E-2,3.737004E-2,2.9930264E-2,1.7727375E-2,2.2047281E-2,7.700324E-3,6.0828626E-3,1.3851352E-2,1.0017086E-2,1.2734473E-2,5.0576925E-3,1.7992973E-2,7.781148E-3,9.310544E-3,6.792411E-3,2.5118887E-3,1.5768884E-3,3.2912493E-3,3.889788E-3,4.011152E-3,2.9927734E-3,4.613783E-3,6.3175857E-3,8.158788E-3,3.369689E-3,6.9174916E-3,6.8432093E-3,7.0824623E-3,0E0,0E0,0E0,0E0,0E0,0E0,0E0,0E0,0E0,0E0,0E0,0E0,0E0,0E0,0E0,0E0,0E0,0E0,0E0,0E0,0E0,0E0,0E0,0E0,0E0,0E0,0E0,0E0,0E0,0E0,0E0,0E0],"parents":[2147483647,0,0,1,1,2,2,3,3,4,4,5,5,6,6,7,7,8,8,9,9,10,10,11,11,12,12,13,13,14,14,15,15,16,16,17,17,18,18,19,19,20,20,21,21,22,22,23,23,24,24,25,25,26,26,27,27,28,28,29,29,30,30],"right_children":[2,4,6,8,10,12,14,16,18,20,22,24,26,28,30,32,34,36,38,40,42,44,46,48,50,52,54,56,58,60,62,-1,-1,-1,-1,-1,-1,-1,-1,-1,-1,-1,-1,-1,-1,-1,-1,-1,-1,-1,-1,-1,-1,-1,-1,-1,-1,-1,-1,-1,-1,-1,-1],"split_conditions":[1.7350478E-1,-6.3695025E-1,8.372108E-1,-9.3044835E-1,-1.8002702E-1,4.0141052E-1,1.1490525E0,1.4718242E-1,2.7693644E-1,-4.9086317E-1,-4.901032E-1,-7.89607E-1,-7.81231E-1,-7.092991E-2,-4.2258176E-1,-1.2100497E0,-1.1650245E0,-1.1737797E0,1.3099759E0,-3.61864E-1,-1.1122779E-1,-4.0260756E-1,9.171502E-2,-1.0506026E0,1.122912E0,6.409895E-1,-2.1900728E-1,6.0639226E-1,-2.0869742E-1,-5.1599115E-1,-2.9821527E-1,2.1597906E-3,1.6754245E-3,2.6860936E-3,2.0788396E-3,-1.9014761E-3,1.1260876E-3,1.3688835E-3,1.7100001E-3,2.7747496E-4,6.4047484E-4,7.476271E-4,1.0610383E-3,-1.666043E-4,-1.6363001E-3,7.5409625E-5,5.3214014E-4,3.828804E-4,-1.4353482E-3,-5.1367545E-4,1.2229584E-3,-1.4052523E-3,-2.037245E-3,-1.355695E-3,-7.840164E-4,-2.057638E-3,-5.9737416E-4,-6.698828E-4,-2.2049686E-3,-2.7451462E-3,-2.1498608E-3,-2.2165047E-3,-1.494987E-3],"split_indices":[0,0,0,0,0,0,0,5,1,1,2,1,1,2,2,0,0,4,1,3,3,5,2,4,1,0,2,1,3,1,1,0,0,0,0,0,0,0,0,0,0,0,0,0,0,0,0,0,0,0,0,0,0,0,0,0,0,0,0,0,0,0,0],"split_type":[0,0,0,0,0,0,0,0,0,0,0,0,0,0,0,0,0,0,0,0,0,0,0,0,0,0,0,0,0,0,0,0,0,0,0,0,0,0,0,0,0,0,0,0,0,0,0,0,0,0,0,0,0,0,0,0,0,0,0,0,0,0,0],"sum_hessian":[4.225E3,2.458E3,1.767E3,1.666E3,7.92E2,7.11E2,1.056E3,1.024E3,6.42E2,4.95E2,2.97E2,1.97E2,5.14E2,3.61E2,6.95E2,6.55E2,3.69E2,2.91E2,3.51E2,1.28E2,3.67E2,2E1,2.77E2,4.2E1,1.55E2,1.86E2,3.28E2,3.29E2,3.2E1,4.35E2,2.6E2,1.16E2,5.39E2,1.08E2,2.61E2,1E0,2.9E2,2.5E2,1.01E2,5.4E1,7.4E1,1.94E2,1.73E2,7E0,1.3E1,2.16E2,6.1E1,2E0,4E1,1.52E2,3E0,9.3E1,9.3E1,2.36E2,9.2E1,3.24E2,5E0,2E1,1.2E1,3.52E2,8.3E1,2.08E2,5.2E1],"tree_param":{"num_deleted":"0","num_feature":"6","num_nodes":"63","size_leaf_vector":"1"}},{"base_weights":[-5.3242206E-6,2.577931E-2,-3.4172088E-2,3.50825E-2,1.5058889E-2,-2.1489147E-2,-4.3282997E-2,3.227039E-2,4.2962477E-2,2.0361057E-2,6.4262645E-3,-1.1011281E-2,-2.649307E-2,-3.754548E-2,-4.6204977E-2,4.0440988E-2,3.0447122E-2,5.1873576E-2,3.949145E-2,1.7919973E-2,2.642856E-2,-3.2911707E-2,6.969058E-3,-2.2347845E-2,-7.1122767E-3,-2.8713722E-2,-1.5970802E-2,-3.871721E-2,-2.4690462E-2,-5.010955E-2,-3.9505363E-2,1.5154822E-3,2.1803845E-3,1.3480264E-3,1.6500944E-3,1.1797056E-3,2.662169E-3,1.8341261E-3,2.4399722E-3,-1.85394E-3,9.05262E-4,9.192303E-4,1.512516E-3,-6.607821E-4,-1.9727915E-3,4.4159457E-4,-5.0263567E-5,-1.45448E-3,-7.870975E-4,-8.44839E-5,-6.438804E-4,-2.724676E-3,-1.4011667E-3,-1.0904454E-3,-4.088423E-4,-1.952907E-3,-4.3725548E-4,-6.3798303E-4,-2.1032016E-3,-2.9990054E-3,-2.3946369E-3,-2.326857E-3,-1.7460451E-3],"categories":[],"categories_nodes":[],"categories_segments":[],"categories_sizes":[],"default_left":[0,0,0,0,0,0,0,0,0,0,0,0,0,0,0,0,0,0,0,0,0,0,0,0,0,0,0,0,0,0,0,0,0,0,0,0,0,0,0,0,0,0,0,0,0,0,0,0,0,0,0,0,0,0,0,0,0,0,0,0,0,0,0],"id":3,"left_children":[1,3,5,7,9,11,13,15,17,19,21,23,25,27,29,31,33,35,37,39,41,43,45,47,49,51,53,55,57,59,61,-1,-1,-1,-1,-1,-1,-1,-1,-1,-1,-1,-1,-1,-1,-1,-1,-1,-1,-1,-1,-1,-1,-1,-1,-1,-1,-1,-1,-1,-1,-1,-1],"loss_changes":[3.723892E0,2.397312E-1,2.0914531E-1,2.7176976E-2,5.117914E-2,3.9660275E-2,1.5985727E-2,1.298064E-2,8.344114E-3,9.805441E-3,9.368187E-3,1.08029805E-2,1.1575013E-2,4.4966936E-3,1.6227245E-2,4.1644275E-3,6.0936213E-3,2.2688806E-3,4.641682E-3,5.7456642E-3,5.5000484E-3,2.5192695E-4,6.2924754E-3,2.3478009E-3,5.7931747E-3,6.0192943E-3,4.007848E-3,3.030479E-3,6.303536E-3,6.667495E-3,6.7887306E-3,0E0,0E0,0E0,0E0,0E0,0E0,0E0,0E0,0E0,0E0,0E0,0E0,0E0,0E0,0E0,0E0,0E0,0E0,0E0,0E0,0E0,0E0,0E0,0E0,0E0,0E0,0E0,0E0,0E0,0E0,0E0,0E0],"parents":[2147483647,0,0,1,1,2,2,3,3,4,4,5,5,6,6,7,7,8,8,9,9,10,10,11,11,12,12,13,13,14,14,15,15,16,16,17,17,18,18,19,19,20,20,21,21,22,22,23,23,24,24,25,25,26,26,27,27,28,28,29,29,30,30],"right_children":[2,4,6,8,10,12,14,16,18,20,22,24,26,28,30,32,34,36,38,40,42,44,46,48,50,52,54,56,58,60,62,-1,-1,-1,-1,-1,-1,-1,-1,-1,-1,-1,-1,-1,-1,-1,-1,-1,-1,-1,-1,-1,-1,-1,-1,-1,-1,-1,-1,-1,-1,-1,-1],"split_conditions":[8.23425E-2,-8.2205415E-1,8.372108E-1,3.655319E-1,-3.6957788E-1,4.0141052E-1,1.1490525E0,-1.1872592E0,-1.1650245E0,6.538563E-1,-5.4006165E-1,-6.863031E-1,-2.45994E-2,-7.092991E-2,-4.2258176E-1,-2.3654589E-1,2.4622446E-1,-4.871821E-1,2.3513913E0,-1.1737797E0,-1.5300049E-1,-6.802104E-1,-8.263927E-3,-6.0904735E-1,-2.721149E-1,-4.3016076E-1,-3.2555154E-1,7.459922E-1,-2.0869742E-1,-1.3200867E0,-4.970583E-1,1.5154822E-3,2.1803845E-3,1.3480264E-3,1.6500944E-3,1.1797056E-3,2.662169E-3,1.8341261E-3,2.4399722E-3,-1.85394E-3,9.05262E-4,9.192303E-4,1.512516E-3,-6.607821E-4,-1.9727915E-3,4.4159457E-4,-5.0263567E-5,-1.45448E-3,-7.870975E-4,-8.44839E-5,-6.438804E-4,-2.724676E-3,-1.4011667E-3,-1.0904454E-3,-4.088423E-4,-1.952907E-3,-4.3725548E-4,-6.3798303E-4,-2.1032016E-3,-2.9990054E-3,-2.3946369E-3,-2.326857E-3,-1.7460451E-3],"split_indices":[0,0,0,5,0,0,0,0,0,1,2,1,1,2,2,3,1,3,1,4,3,4,0,4,5,5,4,1,3,1,4,0,0,0,0,0,0,0,0,0,0,0,0,0,0,0,0,0,0,0,0,0,0,0,0,0,0,0,0,0,0,0,0],"split_type":[0,0,0,0,0,0,0,0,0,0,0,0,0,0,0,0,0,0,0,0,0,0,0,0,0,0,0,0,0,0,0,0,0,0,0,0,0,0,0,0,0,0,0,0,0,0,0,0,0,0,0,0,0,0,0,0,0,0,0,0,0,0,0],"sum_hessian":[4.225E3,2.408E3,1.817E3,1.288E3,1.12E3,7.61E2,1.056E3,9.53E2,3.35E2,6.93E2,4.27E2,2.47E2,5.14E2,3.61E2,6.95E2,1.7E2,7.83E2,9E1,2.45E2,4.97E2,1.96E2,5E0,4.22E2,6.2E1,1.85E2,4.23E2,9.1E1,3.29E2,3.2E1,4.35E2,2.6E2,4.3E1,1.27E2,3.36E2,4.47E2,5E0,8.5E1,1.92E2,5.3E1,1E0,4.96E2,6.5E1,1.31E2,2E0,3E0,3.42E2,8E1,2.9E1,3.3E1,9.6E1,8.9E1,9E0,4.14E2,5.1E1,4E1,3.25E2,4E0,2E1,1.2E1,7.5E1,3.6E2,9.9E1,1.61E2],"tree_param":{"num_deleted":"0","num_feature":"6","num_nodes":"63","size_leaf_vector":"1"}},{"base_weights":[-7.227437E-6,2.3912067E-2,-3.3275064E-2,3.0754257E-2,9.498641E-3,-2.1563316E-2,-4.113267E-2,3.5195954E-2,2.3625964E-2,1.4303164E-2,1.4699762E-3,-3.028169E-2,-1.7473139E-2,-4.506414E-2,-3.7153352E-2,3.1898893E-2,4.0946428E-2,1.9990599E-2,2.6574546E-2,8.632934E-3,1.6251959E-2,-2.148242E-2,3.1985026E-3,-2.4857419E-2,-3.7771698E-2,-8.564769E-3,-2.1606369E-2,-3.9024137E-2,-4.80329E-2,-5.267623E-2,-3.5358224E-2,1.9525926E-3,1.5145007E-3,2.4295468E-3,1.8804899E-3,-1.8075913E-3,1.015388E-3,1.2348368E-3,1.5467454E-3,7.2563445E-4,3.2718026E-4,6.739777E-4,9.632781E-4,-1.3040901E-4,-1.5366621E-3,2.87526E-4,-1.01175814E-4,-1.6252056E-3,-9.805952E-4,-2.0704397E-3,-8.049115E-4,-4.6785755E-4,1.1942507E-3,-8.3814526E-4,-1.3292771E-3,-1.3930601E-3,-2.0967403E-3,-2.6927532E-3,-2.2373402E-3,-7.787019E-4,-2.7295442E-3,-1.8807147E-3,-1.2229086E-3],"categories":[],"categories_nodes":[],"categories_segments":[],"categories_sizes":[],"default_left":[0,0,0,0,0,0,0,0,0,0,0,0,0,0,0,0,0,0,0,0,0,0,0,0,0,0,0,0,0,0,0,0,0,0,0,0,0,0,0,0,0,0,0,0,0,0,0,0,0,0,0,0,0,0,0,0,0,0,0,0,0,0,0],"id":4,"left_children":[1,3,5,7,9,11,13,15,17,19,21,23,25,27,29,31,33,35,37,39,41,43,45,47,49,51,53,55,57,59,61,-1,-1,-1,-1,-1,-1,-1,-1,-1,-1,-1,-1,-1,-1,-1,-1,-1,-1,-1,-1,-1,-1,-1,-1,-1,-1,-1,-1,-1,-1,-1,-1],"loss_changes":[3.3636062E0,2.4221289E-1,1.6181552E-1,5.1948667E-2,3.0568078E-2,2.486056E-2,1.4862061E-2,1.812756E-2,6.3611865E-3,5.340554E-3,1.1891509E-2,8.242995E-3,1.7746463E-2,7.5753927E-3,1.2934029E-2,6.3664913E-3,7.610023E-3,5.933583E-3,2.1181852E-3,1.4897669E-3,2.8149262E-3,3.5864888E-3,3.716454E-3,4.737377E-3,6.664425E-3,4.2346613E-3,7.561013E-3,4.6476424E-3,4.2672753E-3,2.9147863E-3,1.0859191E-2,0E0,0E0,0E0,0E0,0E0,0E0,0E0,0E0,0E0,0E0,0E0,0E0,0E0,0E0,0E0,0E0,0E0,0E0,0E0,0E0,0E0,0E0,0E0,0E0,0E0,0E0,0E0,0E0,0E0,0E0,0E0,0E0],"parents":[2147483647,0,0,1,1,2,2,3,3,4,4,5,5,6,6,7,7,8,8,9,9,10,10,11,11,12,12,13,13,14,14,15,15,16,16,17,17,18,18,19,19,20,20,21,21,22,22,23,23,24,24,25,25,26,26,27,27,28,28,29,29,30,30],"right_children":[2,4,6,8,10,12,14,16,18,20,22,24,26,28,30,32,34,36,38,40,42,44,46,48,50,52,54,56,58,60,62,-1,-1,-1,-1,-1,-1,-1,-1,-1,-1,-1,-1,-1,-1,-1,-1,-1,-1,-1,-1,-1,-1,-1,-1,-1,-1,-1,-1,-1,-1,-1,-1],"split_conditions":[1.7350478E-1,-6.3695025E-1,8.372108E-1,-9.3044835E-1,-1.8002702E-1,-7.89607E-1,-8.34279E-1,1.4718242E-1,2.7693644E-1,-4.9086317E-1,-4.901032E-1,6.409895E-1,4.0141052E-1,1.2001923E0,-4.167762E-1,-1.2100497E0,-1.1650245E0,-1.1737797E0,1.3099759E0,-3.378886E-1,-1.1122779E-1,-4.0260756E-1,-1.4271091E-1,-4.3247396E-1,8.173998E-2,1.122912E0,-4.3148518E-1,-3.92251E-1,-5.238555E-1,-4.326364E-1,-9.439936E-2,1.9525926E-3,1.5145007E-3,2.4295468E-3,1.8804899E-3,-1.8075913E-3,1.015388E-3,1.2348368E-3,1.5467454E-3,7.2563445E-4,3.2718026E-4,6.739777E-4,9.632781E-4,-1.3040901E-4,-1.5366621E-3,2.87526E-4,-1.01175814E-4,-1.6252056E-3,-9.805952E-4,-2.0704397E-3,-8.049115E-4,-4.6785755E-4,1.1942507E-3,-8.3814526E-4,-1.3292771E-3,-1.3930601E-3,-2.0967403E-3,-2.6927532E-3,-2.2373402E-3,-7.787019E-4,-2.7295442E-3,-1.8807147E-3,-1.2229086E-3],"split_indices":[0,0,0,0,0,1,1,5,1,1,2,0,0,0,5,0,0,4,1,2,3,5,5,2,4,1,3,5,2,5,1,0,0,0,0,0,0,0,0,0,0,0,0,0,0,0,0,0,0,0,0,0,0,0,0,0,0,0,0,0,0,0,0],"split_type":[0,0,0,0,0,0,0,0,0,0,0,0,0,0,0,0,0,0,0,0,0,0,0,0,0,0,0,0,0,0,0,0,0,0,0,0,0,0,0,0,0,0,0,0,0,0,0,0,0,0,0,0,0,0,0,0,0,0,0,0,0,0,0],"sum_hessian":[4.225E3,2.458E3,1.767E3,1.666E3,7.92E2,7.11E2,1.056E3,1.024E3,6.42E2,4.95E2,2.97E2,2.25E2,4.86E2,5.26E2,5.3E2,6.55E2,3.69E2,2.91E2,3.51E2,1.28E2,3.67E2,2E1,2.77E2,1.33E2,9.2E1,1.55E2,3.31E2,1.78E2,3.48E2,5.2E1,4.78E2,1.16E2,5.39E2,1.08E2,2.61E2,1E0,2.9E2,2.5E2,1.01E2,3.2E1,9.6E1,1.94E2,1.73E2,7E0,1.3E1,1.86E2,9.1E1,5.2E1,8.1E1,7.8E1,1.4E1,1.52E2,3E0,1.7E2,1.61E2,3.9E1,1.39E2,1.2E2,2.28E2,3E0,4.9E1,3.94E2,8.4E1],"tree_param":{"num_deleted":"0","num_feature":"6","num_nodes":"63","size_leaf_vector":"1"}},{"base_weights":[-9.460284E-6,2.3280153E-2,-3.0870114E-2,3.170227E-2,1.3575079E-2,-1.7204322E-2,-3.7756644E-2,2.9146777E-2,3.8863685E-2,1.837493E-2,5.7604252E-3,-9.988563E-3,-2.207329E-2,-3.2218333E-2,-4.1784514E-2,3.3708148E-2,2.6423668E-2,4.6919256E-2,3.57258E-2,1.5038331E-2,2.2116981E-2,-3.0658871E-2,6.263393E-3,-1.9606145E-2,-6.1716945E-3,-2.779495E-2,-1.7886596E-2,-3.6964096E-2,-2.8642409E-2,-4.540957E-2,-3.5568763E-2,1.92097E-3,1.5620056E-3,1.1226985E-3,1.4770854E-3,1.0293205E-3,2.410543E-3,1.6530289E-3,2.2294957E-3,-1.7624021E-3,7.6350657E-4,8.3396054E-4,1.2568099E-3,-5.875339E-4,-1.8587649E-3,3.9836048E-4,-5.1442894E-5,-1.3333332E-3,-6.9808576E-4,-4.1808897E-5,-6.031156E-4,-1.2059264E-3,-1.7747538E-3,-1.3880035E-3,-7.3438085E-4,-1.9409923E-3,-1.0579574E-3,-2.2572496E-3,-1.3344114E-3,-2.1590684E-3,-2.7618713E-3,-2.1095953E-3,-1.5630423E-3],"categories":[],"categories_nodes":[],"categories_segments":[],"categories_sizes":[],"default_left":[0,0,0,0,0,0,0,0,0,0,0,0,0,0,0,0,0,0,0,0,0,0,0,0,0,0,0,0,0,0,0,0,0,0,0,0,0,0,0,0,0,0,0,0,0,0,0,0,0,0,0,0,0,0,0,0,0,0,0,0,0,0,0],"id":5,"left_children":[1,3,5,7,9,11,13,15,17,19,21,23,25,27,29,31,33,35,37,39,41,43,45,47,49,51,53,55,57,59,61,-1,-1,-1,-1,-1,-1,-1,-1,-1,-1,-1,-1,-1,-1,-1,-1,-1,-1,-1,-1,-1,-1,-1,-1,-1,-1,-1,-1,-1,-1,-1,-1],"loss_changes":[3.0380826E0,1.9647479E-1,1.704421E-1,2.2457123E-2,4.194194E-2,2.1245956E-2,2.5601387E-2,1.0959029E-2,6.816983E-3,8.332476E-3,8.032018E-3,8.982841E-3,8.222401E-3,7.647097E-3,1.4067411E-2,2.9043257E-3,6.7880154E-3,2.1025687E-3,4.337549E-3,4.8511177E-3,4.916534E-3,3.0244794E-4,5.2638277E-3,2.4173688E-3,5.6157922E-3,3.4468696E-3,6.319888E-3,5.543202E-3,8.3731115E-3,7.1625113E-3,6.127894E-3,0E0,0E0,0E0,0E0,0E0,0E0,0E0,0E0,0E0,0E0,0E0,0E0,0E0,0E0,0E0,0E0,0E0,0E0,0E0,0E0,0E0,0E0,0E0,0E0,0E0,0E0,0E0,0E0,0E0,0E0,0E0,0E0],"parents":[2147483647,0,0,1,1,2,2,3,3,4,4,5,5,6,6,7,7,8,8,9,9,10,10,11,11,12,12,13,13,14,14,15,15,16,16,17,17,18,18,19,19,20,20,21,21,22,22,23,23,24,24,25,25,26,26,27,27,28,28,29,29,30,30],"right_children":[2,4,6,8,10,12,14,16,18,20,22,24,26,28,30,32,34,36,38,40,42,44,46,48,50,52,54,56,58,60,62,-1,-1,-1,-1,-1,-1,-1,-1,-1,-1,-1,-1,-1,-1,-1,-1,-1,-1,-1,-1,-1,-1,-1,-1,-1,-1,-1,-1,-1,-1,-1,-1],"split_conditions":[8.23425E-2,-8.2205415E-1,7.021349E-1,3.655319E-1,-3.6957788E-1,4.0141052E-1,1.1490525E0,-1.0977645E0,-1.1650245E0,2.7693644E-1,-5.4006165E-1,-6.5000707E-1,-4.1180533E-1,-8.06359E-1,-4.2258176E-1,-1.2206112E0,2.4622446E-1,-4.871821E-1,2.3513913E0,-1.1737797E0,-1.947732E-1,-6.802104E-1,-8.263927E-3,-6.0904735E-1,-2.721149E-1,-2.9224283E-1,-8.6778295E-1,-4.7273327E-2,-4.179046E-1,-2.9224283E-1,-4.970583E-1,1.92097E-3,1.5620056E-3,1.1226985E-3,1.4770854E-3,1.0293205E-3,2.410543E-3,1.6530289E-3,2.2294957E-3,-1.7624021E-3,7.6350657E-4,8.3396054E-4,1.2568099E-3,-5.875339E-4,-1.8587649E-3,3.9836048E-4,-5.1442894E-5,-1.3333332E-3,-6.9808576E-4,-4.1808897E-5,-6.031156E-4,-1.2059264E-3,-1.7747538E-3,-1.3880035E-3,-7.3438085E-4,-1.9409923E-3,-1.0579574E-3,-2.2572496E-3,-1.3344114E-3,-2.1590684E-3,-2.7618713E-3,-2.1095953E-3,-1.5630423E-3],"split_indices":[0,0,0,5,0,0,0,0,0,1,2,1,2,1,2,0,1,3,1,4,3,4,0,4,5,3,1,4,5,3,4,0,0,0,0,0,0,0,0,0,0,0,0,0,0,0,0,0,0,0,0,0,0,0,0,0,0,0,0,0,0,0,0],"split_type":[0,0,0,0,0,0,0,0,0,0,0,0,0,0,0,0,0,0,0,0,0,0,0,0,0,0,0,0,0,0,0,0,0,0,0,0,0,0,0,0,0,0,0,0,0,0,0,0,0,0,0,0,0,0,0,0,0,0,0,0,0,0,0],"sum_hessian":[4.225E3,2.408E3,1.817E3,1.288E3,1.12E3,6.1E2,1.207E3,9.53E2,3.35E2,6.93E2,4.27E2,2.47E2,3.63E2,5.12E2,6.95E2,3.52E2,6.01E2,9E1,2.45E2,3.69E2,3.24E2,5E0,4.22E2,6.9E1,1.78E2,1.51E2,2.12E2,2.16E2,2.96E2,4.35E2,2.6E2,1.16E2,2.36E2,2.68E2,3.33E2,5E0,8.5E1,1.92E2,5.3E1,1E0,3.68E2,1.18E2,2.06E2,2E0,3E0,3.42E2,8E1,2.9E1,4E1,9.4E1,8.4E1,1.05E2,4.6E1,5E1,1.62E2,1.92E2,2.4E1,2.9E1,2.67E2,3.59E2,7.6E1,9.9E1,1.61E2],"tree_param":{"num_deleted":"0","num_feature":"6","num_nodes":"63","size_leaf_vector":"1"}},{"base_weights":[-1.1490213E-5,2.1593696E-2,-3.0060776E-2,2.778894E-2,8.543167E-3,-1.9466093E-2,-3.7168965E-2,3.1813823E-2,2.1329697E-2,1.3300184E-2,1.8632815E-3,-2.7417956E-2,-1.5735935E-2,-4.0782135E-2,-3.351301E-2,2.881761E-2,3.704004E-2,1.8080031E-2,2.3964848E-2,7.876597E-3,1.5174685E-2,-1.5904522E-2,3.1797742E-3,-2.2423105E-2,-3.4320023E-2,-7.107127E-3,-1.9196818E-2,-3.520503E-2,-4.3525748E-2,-4.802052E-2,-3.1837832E-2,1.6146066E-3,1.3096491E-3,2.1982905E-3,1.7008669E-3,-1.7183423E-3,9.18918E-4,1.2430524E-3,8.280246E-4,1.7949537E-4,5.4742367E-4,1.2511186E-3,7.194344E-4,1.9199938E-4,-1.4435853E-3,2.7405698E-4,-1.15401206E-4,-1.4808977E-3,-8.749662E-4,-1.8848984E-3,-7.120757E-4,-4.6639144E-4,3.397255E-4,-1.0985507E-3,-5.910158E-4,-1.2330139E-3,-1.8983175E-3,-2.4848422E-3,-2.0219411E-3,-6.6608266E-4,-2.491801E-3,-1.6973469E-3,-1.0831064E-3],"categories":[],"categories_nodes":[],"categories_segments":[],"categories_sizes":[],"default_left":[0,0,0,0,0,0,0,0,0,0,0,0,0,0,0,0,0,0,0,0,0,0,0,0,0,0,0,0,0,0,0,0,0,0,0,0,0,0,0,0,0,0,0,0,0,0,0,0,0,0,0,0,0,0,0,0,0,0,0,0,0,0,0],"id":6,"left_children":[1,3,5,7,9,11,13,15,17,19,21,23,25,27,29,31,33,35,37,39,41,43,45,47,49,51,53,55,57,59,61,-1,-1,-1,-1,-1,-1,-1,-1,-1,-1,-1,-1,-1,-1,-1,-1,-1,-1,-1,-1,-1,-1,-1,-1,-1,-1,-1,-1,-1,-1,-1,-1],"loss_changes":[2.7442546E0,1.9857585E-1,1.324228E-1,4.2659402E-2,2.5173847E-2,2.06877E-2,1.2595773E-2,1.4982939E-2,5.072981E-3,4.587576E-3,7.793054E-3,7.02174E-3,1.4406987E-2,6.5315366E-3,1.13758445E-2,5.1364303E-3,6.2502027E-3,5.2003637E-3,1.9240528E-3,1.5540463E-3,2.2948682E-3,5.999573E-3,3.9151437E-3,4.2287707E-3,5.770758E-3,4.416243E-3,6.841257E-3,4.275769E-3,4.638672E-3,2.6748776E-3,9.54479E-3,0E0,0E0,0E0,0E0,0E0,0E0,0E0,0E0,0E0,0E0,0E0,0E0,0E0,0E0,0E0,0E0,0E0,0E0,0E0,0E0,0E0,0E0,0E0,0E0,0E0,0E0,0E0,0E0,0E0,0E0,0E0,0E0],"parents":[2147483647,0,0,1,1,2,2,3,3,4,4,5,5,6,6,7,7,8,8,9,9,10,10,11,11,12,12,13,13,14,14,15,15,16,16,17,17,18,18,19,19,20,20,21,21,22,22,23,23,24,24,25,25,26,26,27,27,28,28,29,29,30,30],"right_children":[2,4,6,8,10,12,14,16,18,20,22,24,26,28,30,32,34,36,38,40,42,44,46,48,50,52,54,56,58,60,62,-1,-1,-1,-1,-1,-1,-1,-1,-1,-1,-1,-1,-1,-1,-1,-1,-1,-1,-1,-1,-1,-1,-1,-1,-1,-1,-1,-1,-1,-1,-1,-1],"split_conditions":[1.7350478E-1,-6.3695025E-1,8.372108E-1,-9.3044835E-1,-2.0837627E-1,-7.89607E-1,-8.34279E-1,1.4718242E-1,2.7693644E-1,-4.9086317E-1,-4.901032E-1,6.409895E-1,3.8195515E-1,1.2001923E0,-4.167762E-1,-1.1216668E0,-1.1650245E0,-1.1737797E0,1.545756E0,-3.61864E-1,-7.703879E-1,-4.0260756E-1,-8.762217E-2,-4.3247396E-1,8.173998E-2,4.025764E-1,-2.1900728E-1,-3.92251E-1,-3.7800154E-1,-4.326364E-1,-9.439936E-2,1.6146066E-3,1.3096491E-3,2.1982905E-3,1.7008669E-3,-1.7183423E-3,9.18918E-4,1.2430524E-3,8.280246E-4,1.7949537E-4,5.4742367E-4,1.2511186E-3,7.194344E-4,1.9199938E-4,-1.4435853E-3,2.7405698E-4,-1.15401206E-4,-1.4808977E-3,-8.749662E-4,-1.8848984E-3,-7.120757E-4,-4.6639144E-4,3.397255E-4,-1.0985507E-3,-5.910158E-4,-1.2330139E-3,-1.8983175E-3,-2.4848422E-3,-2.0219411E-3,-6.6608266E-4,-2.491801E-3,-1.6973469E-3,-1.0831064E-3],"split_indices":[0,0,0,0,0,1,1,5,1,1,2,0,0,0,5,0,0,4,3,3,4,5,5,2,4,1,2,5,5,5,1,0,0,0,0,0,0,0,0,0,0,0,0,0,0,0,0,0,0,0,0,0,0,0,0,0,0,0,0,0,0,0,0],"split_type":[0,0,0,0,0,0,0,0,0,0,0,0,0,0,0,0,0,0,0,0,0,0,0,0,0,0,0,0,0,0,0,0,0,0,0,0,0,0,0,0,0,0,0,0,0,0,0,0,0,0,0,0,0,0,0,0,0,0,0,0,0,0,0],"sum_hessian":[4.225E3,2.458E3,1.767E3,1.666E3,7.92E2,7.11E2,1.056E3,1.024E3,6.42E2,4.62E2,3.3E2,2.25E2,4.86E2,5.26E2,5.3E2,6.55E2,3.69E2,2.91E2,3.51E2,1.2E2,3.42E2,2.2E1,3.08E2,1.33E2,9.2E1,1.4E2,3.46E2,1.78E2,3.48E2,5.2E1,4.78E2,2.77E2,3.78E2,1.08E2,2.61E2,1E0,2.9E2,3.11E2,4E1,5.1E1,6.9E1,2.3E1,3.19E2,9E0,1.3E1,2.17E2,9.1E1,5.2E1,8.1E1,7.8E1,1.4E1,1.21E2,1.9E1,2.5E2,9.6E1,3.9E1,1.39E2,1.11E2,2.37E2,3E0,4.9E1,3.94E2,8.4E1],"tree_param":{"num_deleted":"0","num_feature":"6","num_nodes":"63","size_leaf_vector":"1"}},{"base_weights":[-1.3431454E-5,2.102369E-2,-2.7889347E-2,2.8348058E-2,1.1877649E-2,-1.7540755E-2,-3.5323348E-2,3.2090366E-2,2.4283305E-2,1.6296096E-2,5.1809354E-3,-9.054994E-3,-2.159304E-2,-3.0489134E-2,-3.7786942E-2,2.8791672E-2,3.750674E-2,2.349113E-2,4.223964E-2,1.40306195E-2,2.1699755E-2,-2.8603265E-2,5.647896E-3,-1.7824586E-2,-5.574958E-3,-2.2830859E-2,-5.899912E-3,-3.1548537E-2,-1.897118E-2,-4.023792E-2,-2.9782133E-2,1.6820614E-3,1.346137E-3,1.060197E-3,1.9391136E-3,1.063782E-3,1.3096599E-3,2.207456E-3,1.0350108E-3,-1.6753838E-3,7.1039813E-4,7.562418E-4,1.25933E-3,-5.1983097E-4,-1.7553717E-3,4.8476755E-5,3.979427E-4,3.6199094E-4,-9.5274654E-4,-2.5868667E-5,-5.5809825E-4,-9.627463E-4,-1.347784E-3,-8.405652E-4,1.2107737E-4,-1.5352311E-3,-2.2640182E-3,-3.9412748E-4,-1.7712134E-3,-2.1522692E-3,-1.7222125E-3,-1.6106515E-3,-9.4675366E-4],"categories":[],"categories_nodes":[],"categories_segments":[],"categories_sizes":[],"default_left":[0,0,0,0,0,0,0,0,0,0,0,0,0,0,0,0,0,0,0,0,0,0,0,0,0,0,0,0,0,0,0,0,0,0,0,0,0,0,0,0,0,0,0,0,0,0,0,0,0,0,0,0,0,0,0,0,0,0,0,0,0,0,0],"id":7,"left_children":[1,3,5,7,9,11,13,15,17,19,21,23,25,27,29,31,33,35,37,39,41,43,45,47,49,51,53,55,57,59,61,-1,-1,-1,-1,-1,-1,-1,-1,-1,-1,-1,-1,-1,-1,-1,-1,-1,-1,-1,-1,-1,-1,-1,-1,-1,-1,-1,-1,-1,-1,-1,-1],"loss_changes":[2.4788356E0,1.6103983E-1,1.3924181E-1,1.9558549E-2,3.1664625E-2,2.6007175E-2,1.1436224E-2,1.1301875E-2,8.182585E-3,7.6037794E-3,6.9136266E-3,7.4692164E-3,9.869307E-3,3.818661E-3,1.2456894E-2,3.0369163E-3,4.5635104E-3,3.1543076E-3,1.5545636E-4,4.337296E-3,3.9520115E-3,3.4551602E-4,4.5655463E-3,2.2966042E-3,5.052184E-3,6.5167546E-3,3.5818592E-3,2.4338663E-3,5.741358E-3,7.1380734E-3,3.7935078E-3,0E0,0E0,0E0,0E0,0E0,0E0,0E0,0E0,0E0,0E0,0E0,0E0,0E0,0E0,0E0,0E0,0E0,0E0,0E0,0E0,0E0,0E0,0E0,0E0,0E0,0E0,0E0,0E0,0E0,0E0,0E0,0E0],"parents":[2147483647,0,0,1,1,2,2,3,3,4,4,5,5,6,6,7,7,8,8,9,9,10,10,11,11,12,12,13,13,14,14,15,15,16,16,17,17,18,18,19,19,20,20,21,21,22,22,23,23,24,24,25,25,26,26,27,27,28,28,29,29,30,30],"right_children":[2,4,6,8,10,12,14,16,18,20,22,24,26,28,30,32,34,36,38,40,42,44,46,48,50,52,54,56,58,60,62,-1,-1,-1,-1,-1,-1,-1,-1,-1,-1,-1,-1,-1,-1,-1,-1,-1,-1,-1,-1,-1,-1,-1,-1,-1,-1,-1,-1,-1,-1,-1,-1],"split_conditions":[8.23425E-2,-8.0037534E-1,8.372108E-1,-1.0349514E0,-3.6957788E-1,4.0141052E-1,1.1490525E0,1.4718242E-1,2.3513913E0,6.2314427E-1,-5.4006165E-1,-6.5000707E-1,4.4166437E-1,-7.092991E-2,-5.1599115E-1,-1.2100497E0,-4.871821E-1,1.5333265E-1,-8.2205415E-1,-1.1737797E0,-1.1122779E-1,-6.802104E-1,-4.7131917E-1,-1.0506026E0,-2.721149E-1,-4.3148518E-1,-3.465197E-1,-1.7037803E-1,-2.0869742E-1,-4.2258176E-1,-2.1900728E-1,1.6820614E-3,1.346137E-3,1.060197E-3,1.9391136E-3,1.063782E-3,1.3096599E-3,2.207456E-3,1.0350108E-3,-1.6753838E-3,7.1039813E-4,7.562418E-4,1.25933E-3,-5.1983097E-4,-1.7553717E-3,4.8476755E-5,3.979427E-4,3.6199094E-4,-9.5274654E-4,-2.5868667E-5,-5.5809825E-4,-9.627463E-4,-1.347784E-3,-8.405652E-4,1.2107737E-4,-1.5352311E-3,-2.2640182E-3,-3.9412748E-4,-1.7712134E-3,-2.1522692E-3,-1.7222125E-3,-1.6106515E-3,-9.4675366E-4],"split_indices":[0,0,0,0,0,0,0,5,1,1,2,1,1,2,1,0,3,3,0,4,3,4,1,4,5,3,5,2,3,2,2,0,0,0,0,0,0,0,0,0,0,0,0,0,0,0,0,0,0,0,0,0,0,0,0,0,0,0,0,0,0,0,0],"split_type":[0,0,0,0,0,0,0,0,0,0,0,0,0,0,0,0,0,0,0,0,0,0,0,0,0,0,0,0,0,0,0,0,0,0,0,0,0,0,0,0,0,0,0,0,0,0,0,0,0,0,0,0,0,0,0,0,0,0,0,0,0,0,0],"sum_hessian":[4.225E3,2.408E3,1.817E3,1.336E3,1.072E3,7.61E2,1.056E3,6.92E2,6.44E2,6.45E2,4.27E2,2.47E2,5.14E2,3.61E2,6.95E2,4.34E2,2.58E2,6.19E2,2.5E1,4.57E2,1.88E2,5E0,4.22E2,6.9E1,1.78E2,4.76E2,3.8E1,3.29E2,3.2E1,5.29E2,1.66E2,1.16E2,3.18E2,2E1,2.38E2,3.45E2,2.74E2,2.2E1,3E0,1E0,4.56E2,6.7E1,1.21E2,2E0,3E0,1.4E2,2.82E2,3E0,6.6E1,9.4E1,8.4E1,2.58E2,2.18E2,1.6E1,2.2E1,3.13E2,1.6E1,2E1,1.2E1,3.52E2,1.77E2,1.34E2,3.2E1],"tree_param":{"num_deleted":"0","num_feature":"6","num_nodes":"63","size_leaf_vector":"1"}},{"base_weights":[-1.4115229E-5,1.9500062E-2,-2.7155148E-2,2.5108406E-2,7.6859253E-3,-1.7595457E-2,-3.356891E-2,2.875232E-2,1.9260632E-2,1.1659835E-2,1.0458403E-3,-2.5001347E-2,-1.4122507E-2,-3.6871403E-2,-3.0228077E-2,2.584768E-2,3.3189487E-2,1.802238E-2,2.5651522E-2,6.818111E-3,1.3325387E-2,-1.8749963E-2,2.5374447E-3,-2.0271828E-2,-3.154709E-2,-6.405627E-3,-1.7217485E-2,-2.1410713E-2,-3.7631016E-2,-4.404479E-2,-2.863619E-2,1.4713531E-3,1.1544117E-3,1.9772218E-3,1.5283924E-3,9.2549605E-4,3.8173373E-4,2.286813E-4,1.3460624E-3,4.281767E-4,3.8638314E-5,1.0886581E-3,6.214112E-4,-5.86872E-4,-2.2809417E-3,2.858794E-5,4.6882094E-4,-1.358578E-3,-7.782515E-4,-1.7377401E-3,-6.274994E-4,-4.25591E-4,3.3812152E-4,-9.915772E-4,-5.137885E-4,-1.3155724E-3,-5.2241597E-4,-1.7882526E-3,-2.2423358E-3,-5.758204E-4,-2.2883082E-3,-1.5296364E-3,-9.603572E-4],"categories":[],"categories_nodes":[],"categories_segments":[],"categories_sizes":[],"default_left":[0,0,0,0,0,0,0,0,0,0,0,0,0,0,0,0,0,0,0,0,0,0,0,0,0,0,0,0,0,0,0,0,0,0,0,0,0,0,0,0,0,0,0,0,0,0,0,0,0,0,0,0,0,0,0,0,0,0,0,0,0,0,0],"id":8,"left_children":[1,3,5,7,9,11,13,15,17,19,21,23,25,27,29,31,33,35,37,39,41,43,45,47,49,51,53,55,57,59,61,-1,-1,-1,-1,-1,-1,-1,-1,-1,-1,-1,-1,-1,-1,-1,-1,-1,-1,-1,-1,-1,-1,-1,-1,-1,-1,-1,-1,-1,-1,-1,-1],"loss_changes":[2.2387667E0,1.6273469E-1,1.0781181E-1,3.496802E-2,2.0912778E-2,1.7959759E-2,1.05473995E-2,1.2352705E-2,4.6260655E-3,3.908962E-3,8.846775E-3,6.357044E-3,1.1521012E-2,5.3834915E-3,1.0417879E-2,5.4839253E-3,5.4887235E-3,2.6036054E-3,2.6067123E-3,1.3545491E-3,2.5184825E-3,3.421342E-3,3.7318699E-3,3.928814E-3,5.230993E-3,3.9681206E-3,6.0928985E-3,1.1756318E-3,5.141616E-3,2.4405941E-3,8.249104E-3,0E0,0E0,0E0,0E0,0E0,0E0,0E0,0E0,0E0,0E0,0E0,0E0,0E0,0E0,0E0,0E0,0E0,0E0,0E0,0E0,0E0,0E0,0E0,0E0,0E0,0E0,0E0,0E0,0E0,0E0,0E0,0E0],"parents":[2147483647,0,0,1,1,2,2,3,3,4,4,5,5,6,6,7,7,8,8,9,9,10,10,11,11,12,12,13,13,14,14,15,15,16,16,17,17,18,18,19,19,20,20,21,21,22,22,23,23,24,24,25,25,26,26,27,27,28,28,29,29,30,30],"right_children":[2,4,6,8,10,12,14,16,18,20,22,24,26,28,30,32,34,36,38,40,42,44,46,48,50,52,54,56,58,60,62,-1,-1,-1,-1,-1,-1,-1,-1,-1,-1,-1,-1,-1,-1,-1,-1,-1,-1,-1,-1,-1,-1,-1,-1,-1,-1,-1,-1,-1,-1,-1,-1],"split_conditions":[1.7350478E-1,-6.3695025E-1,8.372108E-1,-9.3044835E-1,-1.8002702E-1,-7.89607E-1,-8.34279E-1,7.771175E-2,1.3099759E0,-4.9086317E-1,-4.901032E-1,6.409895E-1,3.8195515E-1,8.889064E-1,-4.167762E-1,-1.1216668E0,-1.1650245E0,1.3592863E0,-3.6060512E-1,4.4786826E-2,-7.1132743E-1,-3.1191E-1,9.171502E-2,-4.3247396E-1,8.173998E-2,4.025764E-1,-2.1900728E-1,-3.727067E-1,-2.6439437E-1,-4.326364E-1,-9.439936E-2,1.4713531E-3,1.1544117E-3,1.9772218E-3,1.5283924E-3,9.2549605E-4,3.8173373E-4,2.286813E-4,1.3460624E-3,4.281767E-4,3.8638314E-5,1.0886581E-3,6.214112E-4,-5.86872E-4,-2.2809417E-3,2.858794E-5,4.6882094E-4,-1.358578E-3,-7.782515E-4,-1.7377401E-3,-6.274994E-4,-4.25591E-4,3.3812152E-4,-9.915772E-4,-5.137885E-4,-1.3155724E-3,-5.2241597E-4,-1.7882526E-3,-2.2423358E-3,-5.758204E-4,-2.2883082E-3,-1.5296364E-3,-9.603572E-4],"split_indices":[0,0,0,0,0,1,1,5,1,1,2,0,0,0,5,0,0,4,5,4,4,5,2,2,4,1,2,2,3,5,1,0,0,0,0,0,0,0,0,0,0,0,0,0,0,0,0,0,0,0,0,0,0,0,0,0,0,0,0,0,0,0,0],"split_type":[0,0,0,0,0,0,0,0,0,0,0,0,0,0,0,0,0,0,0,0,0,0,0,0,0,0,0,0,0,0,0,0,0,0,0,0,0,0,0,0,0,0,0,0,0,0,0,0,0,0,0,0,0,0,0,0,0,0,0,0,0,0,0],"sum_hessian":[4.225E3,2.458E3,1.767E3,1.666E3,7.92E2,7.11E2,1.056E3,1.024E3,6.42E2,4.95E2,2.97E2,2.25E2,4.86E2,5.26E2,5.3E2,6.23E2,4.01E2,5.41E2,1.01E2,1.28E2,3.67E2,2E1,2.77E2,1.33E2,9.2E1,1.4E2,3.46E2,2.6E1,5E2,5.2E1,4.78E2,2.67E2,3.56E2,1.13E2,2.88E2,5.16E2,2.5E1,6E0,9.5E1,9.9E1,2.9E1,3.3E1,3.34E2,1.7E1,3E0,2.16E2,6.1E1,5.2E1,8.1E1,7.8E1,1.4E1,1.21E2,1.9E1,2.5E2,9.6E1,1.7E1,9E0,4.02E2,9.8E1,3E0,4.9E1,3.94E2,8.4E1],"tree_param":{"num_deleted":"0","num_feature":"6","num_nodes":"63","size_leaf_vector":"1"}},{"base_weights":[-1.5422074E-5,1.8985007E-2,-2.519255E-2,2.589382E-2,1.102386E-2,-1.30545655E-2,-3.037884E-2,2.3758676E-2,3.187904E-2,1.49450665E-2,4.6398877E-3,-8.197176E-3,-1.7039776E-2,-2.572168E-2,-3.4202777E-2,3.167133E-2,2.2625575E-2,3.8611993E-2,2.9258808E-2,1.2994448E-2,1.9800209E-2,-2.6780913E-2,5.074604E-3,-1.2472095E-2,-2.2563627E-3,-1.2648655E-2,-2.2574583E-2,-3.022304E-2,-2.238968E-2,-3.7409693E-2,-2.8714584E-2,-4.2660386E-4,1.6045731E-3,1.0277585E-3,1.2626139E-3,7.6827954E-4,1.9892429E-3,1.3430222E-3,1.8644453E-3,-1.6566366E-3,6.576962E-4,6.558755E-4,1.1533465E-3,-4.8294166E-4,-1.6463622E-3,3.2927978E-4,-6.932215E-5,-1.4556403E-3,-5.438451E-4,-5.1413913E-4,1.1310854E-4,-1.4153557E-3,-5.1784347E-4,-1.2098647E-3,-2.600193E-5,-1.6168467E-3,-7.6370157E-4,-1.8186402E-3,-1.0424595E-3,-1.7724972E-3,-2.3659759E-3,-1.741507E-3,-1.238115E-3],"categories":[],"categories_nodes":[],"categories_segments":[],"categories_sizes":[],"default_left":[0,0,0,0,0,0,0,0,0,0,0,0,0,0,0,0,0,0,0,0,0,0,0,0,0,0,0,0,0,0,0,0,0,0,0,0,0,0,0,0,0,0,0,0,0,0,0,0,0,0,0,0,0,0,0,0,0,0,0,0,0,0,0],"id":9,"left_children":[1,3,5,7,9,11,13,15,17,19,21,23,25,27,29,31,33,35,37,39,41,43,45,47,49,51,53,55,57,59,61,-1,-1,-1,-1,-1,-1,-1,-1,-1,-1,-1,-1,-1,-1,-1,-1,-1,-1,-1,-1,-1,-1,-1,-1,-1,-1,-1,-1,-1,-1,-1,-1],"loss_changes":[2.0220964E0,1.3221455E-1,1.1404848E-1,1.5715122E-2,2.7992502E-2,1.0429628E-2,2.1790743E-2,7.836878E-3,4.7979653E-3,6.315261E-3,5.9820097E-3,6.2701907E-3,6.981358E-3,7.992446E-3,1.1175513E-2,2.2500306E-3,4.0382743E-3,1.8697977E-3,3.7361234E-3,4.09922E-3,3.9980337E-3,3.1338912E-4,4.1387063E-3,3.5058428E-3,3.8313642E-3,5.7715382E-3,4.6756715E-3,7.185027E-3,6.4793974E-3,6.790042E-3,5.446002E-3,0E0,0E0,0E0,0E0,0E0,0E0,0E0,0E0,0E0,0E0,0E0,0E0,0E0,0E0,0E0,0E0,0E0,0E0,0E0,0E0,0E0,0E0,0E0,0E0,0E0,0E0,0E0,0E0,0E0,0E0,0E0,0E0],"parents":[2147483647,0,0,1,1,2,2,3,3,4,4,5,5,6,6,7,7,8,8,9,9,10,10,11,11,12,12,13,13,14,14,15,15,16,16,17,17,18,18,19,19,20,20,21,21,22,22,23,23,24,24,25,25,26,26,27,27,28,28,29,29,30,30],"right_children":[2,4,6,8,10,12,14,16,18,20,22,24,26,28,30,32,34,36,38,40,42,44,46,48,50,52,54,56,58,60,62,-1,-1,-1,-1,-1,-1,-1,-1,-1,-1,-1,-1,-1,-1,-1,-1,-1,-1,-1,-1,-1,-1,-1,-1,-1,-1,-1,-1,-1,-1,-1,-1],"split_conditions":[8.23425E-2,-8.2205415E-1,6.5544206E-1,3.655319E-1,-3.6957788E-1,4.0141052E-1,1.1490525E0,-1.2206112E0,-1.1650245E0,6.538563E-1,-5.4006165E-1,-1.7536733E-1,-4.3148518E-1,-8.06359E-1,-4.2258176E-1,-7.769502E-1,1.5333265E-1,-4.871821E-1,2.3513913E0,-1.1737797E0,-1.1122779E-1,-6.802104E-1,-8.263927E-3,-1.0799749E0,-4.781783E-1,-5.4820836E-1,5.8964026E-1,7.12242E-2,-4.179046E-1,-2.6439437E-1,-4.970583E-1,-4.2660386E-4,1.6045731E-3,1.0277585E-3,1.2626139E-3,7.6827954E-4,1.9892429E-3,1.3430222E-3,1.8644453E-3,-1.6566366E-3,6.576962E-4,6.558755E-4,1.1533465E-3,-4.8294166E-4,-1.6463622E-3,3.2927978E-4,-6.932215E-5,-1.4556403E-3,-5.438451E-4,-5.1413913E-4,1.1310854E-4,-1.4153557E-3,-5.1784347E-4,-1.2098647E-3,-2.600193E-5,-1.6168467E-3,-7.6370157E-4,-1.8186402E-3,-1.0424595E-3,-1.7724972E-3,-2.3659759E-3,-1.741507E-3,-1.238115E-3],"split_indices":[0,0,0,5,0,0,0,0,0,1,2,1,3,1,2,4,3,3,1,4,3,4,0,1,4,2,1,4,5,3,4,0,0,0,0,0,0,0,0,0,0,0,0,0,0,0,0,0,0,0,0,0,0,0,0,0,0,0,0,0,0,0,0],"split_type":[0,0,0,0,0,0,0,0,0,0,0,0,0,0,0,0,0,0,0,0,0,0,0,0,0,0,0,0,0,0,0,0,0,0,0,0,0,0,0,0,0,0,0,0,0,0,0,0,0,0,0,0,0,0,0,0,0,0,0,0,0,0,0],"sum_hessian":[4.225E3,2.408E3,1.817E3,1.288E3,1.12E3,5.45E2,1.272E3,9.53E2,3.35E2,6.93E2,4.27E2,2.47E2,2.98E2,5.77E2,6.95E2,1.16E2,8.37E2,9E1,2.45E2,4.97E2,1.96E2,5E0,4.22E2,1.43E2,1.04E2,1.68E2,1.3E2,2.42E2,3.35E2,4.35E2,2.6E2,1E0,1.15E2,4.73E2,3.64E2,5E0,8.5E1,1.92E2,5.3E1,1E0,4.96E2,6.6E1,1.3E2,2E0,3E0,3.42E2,8E1,1.1E1,1.32E2,3.7E1,6.7E1,2E1,1.48E2,1.21E2,9E0,2.11E2,3.1E1,3.1E1,3.04E2,3.67E2,6.8E1,9.9E1,1.61E2],"tree_param":{"num_deleted":"0","num_feature":"6","num_nodes":"63","size_leaf_vector":"1"}},{"base_weights":[-1.6904263E-5,1.7607564E-2,-2.4529658E-2,2.2688186E-2,6.90516E-3,-1.5878823E-2,-3.0333692E-2,2.7466621E-2,1.8981358E-2,1.08412E-2,1.3785992E-3,-2.2682805E-2,-1.2688723E-2,-2.6079359E-2,-3.2502852E-2,2.4801526E-2,3.259768E-2,1.840365E-2,3.4336902E-2,3.677061E-3,1.2001984E-2,-1.3743722E-2,2.4997473E-3,-2.7207648E-2,-1.681337E-2,-5.7425094E-3,-1.5474681E-2,-2.7039161E-2,-1.5691051E-2,-3.5052832E-2,-2.6137372E-2,1.4828024E-3,1.163458E-3,8.717607E-4,1.6897627E-3,7.7747734E-4,1.0228846E-3,1.7762525E-3,-9.209663E-5,-6.720048E-4,2.4990848E-4,4.6765347E-4,7.411914E-4,2.2577972E-4,-1.2902198E-3,2.356186E-4,-1.3851913E-4,-1.1452021E-3,-1.6751513E-3,-1.1441872E-3,-4.0466207E-4,-3.858142E-4,3.2923193E-4,-8.9689234E-4,-4.4706938E-4,-1.3111857E-3,-2.0255228E-3,-2.6494463E-4,-1.563569E-3,-1.9104682E-3,-1.564681E-3,-1.4137239E-3,-7.892552E-4],"categories":[],"categories_nodes":[],"categories_segments":[],"categories_sizes":[],"default_left":[0,0,0,0,0,0,0,0,0,0,0,0,0,0,0,0,0,0,0,0,0,0,0,0,0,0,0,0,0,0,0,0,0,0,0,0,0,0,0,0,0,0,0,0,0,0,0,0,0,0,0,0,0,0,0,0,0,0,0,0,0,0,0],"id":10,"left_children":[1,3,5,7,9,11,13,15,17,19,21,23,25,27,29,31,33,35,37,39,41,43,45,47,49,51,53,55,57,59,61,-1,-1,-1,-1,-1,-1,-1,-1,-1,-1,-1,-1,-1,-1,-1,-1,-1,-1,-1,-1,-1,-1,-1,-1,-1,-1,-1,-1,-1,-1,-1,-1],"loss_changes":[1.8261663E0,1.3355112E-1,8.828914E-2,2.9005945E-2,1.7234996E-2,1.5166417E-2,8.906662E-3,9.119391E-3,7.7245533E-3,3.806185E-3,5.64625E-3,5.544722E-3,9.3354955E-3,3.185138E-3,1.0381162E-2,2.8955042E-3,3.85952E-3,5.0167143E-3,1.4839657E-3,1.559675E-3,2.8363317E-3,5.181574E-3,3.6162487E-3,2.646342E-3,5.1611755E-3,3.4814808E-3,5.423732E-3,2.5627762E-3,5.1774327E-3,4.6661496E-3,4.0448457E-3,0E0,0E0,0E0,0E0,0E0,0E0,0E0,0E0,0E0,0E0,0E0,0E0,0E0,0E0,0E0,0E0,0E0,0E0,0E0,0E0,0E0,0E0,0E0,0E0,0E0,0E0,0E0,0E0,0E0,0E0,0E0,0E0],"parents":[2147483647,0,0,1,1,2,2,3,3,4,4,5,5,6,6,7,7,8,8,9,9,10,10,11,11,12,12,13,13,14,14,15,15,16,16,17,17,18,18,19,19,20,20,21,21,22,22,23,23,24,24,25,25,26,26,27,27,28,28,29,29,30,30],"right_children":[2,4,6,8,10,12,14,16,18,20,22,24,26,28,30,32,34,36,38,40,42,44,46,48,50,52,54,56,58,60,62,-1,-1,-1,-1,-1,-1,-1,-1,-1,-1,-1,-1,-1,-1,-1,-1,-1,-1,-1,-1,-1,-1,-1,-1,-1,-1,-1,-1,-1,-1,-1,-1],"split_conditions":[1.7350478E-1,-6.3695025E-1,8.372108E-1,-1.02439E0,-2.0837627E-1,-7.89607E-1,1.1490525E0,2.3656727E-1,2.3513913E0,-6.946791E-1,-4.901032E-1,-5.287939E-1,3.8195515E-1,-7.092991E-2,-5.969591E-1,-1.2206112E0,-4.7325787E-1,2.4622446E-1,2.2280436E0,-6.035982E-1,-1.2515202E-1,-4.0260756E-1,-8.762217E-2,6.5544206E-1,-9.794629E-1,4.025764E-1,-2.1900728E-1,-1.7037803E-1,-2.0869742E-1,-3.2843533E-1,-2.1900728E-1,1.4828024E-3,1.163458E-3,8.717607E-4,1.6897627E-3,7.7747734E-4,1.0228846E-3,1.7762525E-3,-9.209663E-5,-6.720048E-4,2.4990848E-4,4.6765347E-4,7.411914E-4,2.2577972E-4,-1.2902198E-3,2.356186E-4,-1.3851913E-4,-1.1452021E-3,-1.6751513E-3,-1.1441872E-3,-4.0466207E-4,-3.858142E-4,3.2923193E-4,-8.9689234E-4,-4.4706938E-4,-1.3111857E-3,-2.0255228E-3,-2.6494463E-4,-1.563569E-3,-1.9104682E-3,-1.564681E-3,-1.4137239E-3,-7.892552E-4],"split_indices":[0,0,0,0,0,1,0,5,1,1,2,4,0,2,1,0,3,1,3,0,3,5,5,0,1,1,2,2,3,5,2,0,0,0,0,0,0,0,0,0,0,0,0,0,0,0,0,0,0,0,0,0,0,0,0,0,0,0,0,0,0,0,0],"split_type":[0,0,0,0,0,0,0,0,0,0,0,0,0,0,0,0,0,0,0,0,0,0,0,0,0,0,0,0,0,0,0,0,0,0,0,0,0,0,0,0,0,0,0,0,0,0,0,0,0,0,0,0,0,0,0,0,0,0,0,0,0,0,0],"sum_hessian":[4.225E3,2.458E3,1.767E3,1.666E3,7.92E2,7.11E2,1.056E3,7.25E2,9.41E2,4.62E2,3.3E2,2.25E2,4.86E2,3.61E2,6.95E2,4.81E2,2.44E2,9.09E2,3.2E1,6.5E1,3.97E2,2.2E1,3.08E2,1.25E2,1E2,1.4E2,3.46E2,3.29E2,3.2E1,4.93E2,2.02E2,1.11E2,3.7E2,1.9E1,2.25E2,3.84E2,5.25E2,3.1E1,1E0,4E0,6.1E1,2.07E2,1.9E2,9E0,1.3E1,2.17E2,9.1E1,7.7E1,4.8E1,5.8E1,4.2E1,1.21E2,1.9E1,2.5E2,9.6E1,3.13E2,1.6E1,2E1,1.2E1,2.63E2,2.3E2,1.66E2,3.6E1],"tree_param":{"num_deleted":"0","num_feature":"6","num_nodes":"63","size_leaf_vector":"1"}},{"base_weights":[-1.7982451E-5,1.7144289E-2,-2.2759398E-2,2.3785565E-2,1.0298513E-2,-1.15346145E-2,-2.7344787E-2,2.1812912E-2,2.920848E-2,1.3735225E-2,4.163848E-3,-1.2059308E-2,2.0120898E-2,-2.3156647E-2,-3.0885879E-2,2.8618889E-2,2.0769402E-2,3.5094403E-2,2.6784327E-2,1.1172387E-2,1.6485121E-2,-2.4974266E-2,4.5673107E-3,-6.6557634E-3,-1.4868017E-2,2.4906652E-2,2.2471745E-3,-2.7421605E-2,-2.0029465E-2,-3.3872478E-2,-2.5778435E-2,-4.5300872E-4,1.4510907E-3,9.410441E-4,1.1597135E-3,6.999428E-4,1.8079056E-3,1.0631012E-3,1.4739566E-3,-1.6346574E-3,5.682858E-4,6.128658E-4,9.399794E-4,-4.238377E-4,-1.5551917E-3,1.5259444E-5,3.3373514E-4,-6.920509E-4,-1.8538932E-4,-1.562685E-3,-6.821917E-4,5.680181E-4,1.611314E-3,-4.1139127E-5,2.0967722E-4,-1.466867E-3,-6.7568664E-4,-1.6712908E-3,-9.3047443E-4,-1.6003054E-3,-2.1667772E-3,-1.575492E-3,-1.1040702E-3],"categories":[],"categories_nodes":[],"categories_segments":[],"categories_sizes":[],"default_left":[0,0,0,0,0,0,0,0,0,0,0,0,0,0,0,0,0,0,0,0,0,0,0,0,0,0,0,0,0,0,0,0,0,0,0,0,0,0,0,0,0,0,0,0,0,0,0,0,0,0,0,0,0,0,0,0,0,0,0,0,0,0,0],"id":11,"left_children":[1,3,5,7,9,11,13,15,17,19,21,23,25,27,29,31,33,35,37,39,41,43,45,47,49,51,53,55,57,59,61,-1,-1,-1,-1,-1,-1,-1,-1,-1,-1,-1,-1,-1,-1,-1,-1,-1,-1,-1,-1,-1,-1,-1,-1,-1,-1,-1,-1,-1,-1,-1,-1],"loss_changes":[1.6497742E0,1.0927951E-1,9.325701E-2,1.2435257E-2,2.4989516E-2,9.029023E-3,1.8416226E-2,5.7974756E-3,3.6686957E-3,5.179003E-3,5.1456974E-3,7.808253E-3,7.1388343E-4,7.386446E-3,9.743512E-3,2.0392165E-3,3.267765E-3,1.5358254E-3,2.8406233E-3,3.7383512E-3,3.3411235E-3,3.430762E-4,3.7973318E-3,3.761434E-3,6.433785E-3,3.279741E-4,2.1376192E-5,6.2378496E-3,5.978763E-3,6.313503E-3,4.8346072E-3,0E0,0E0,0E0,0E0,0E0,0E0,0E0,0E0,0E0,0E0,0E0,0E0,0E0,0E0,0E0,0E0,0E0,0E0,0E0,0E0,0E0,0E0,0E0,0E0,0E0,0E0,0E0,0E0,0E0,0E0,0E0,0E0],"parents":[2147483647,0,0,1,1,2,2,3,3,4,4,5,5,6,6,7,7,8,8,9,9,10,10,11,11,12,12,13,13,14,14,15,15,16,16,17,17,18,18,19,19,20,20,21,21,22,22,23,23,24,24,25,25,26,26,27,27,28,28,29,29,30,30],"right_children":[2,4,6,8,10,12,14,16,18,20,22,24,26,28,30,32,34,36,38,40,42,44,46,48,50,52,54,56,58,60,62,-1,-1,-1,-1,-1,-1,-1,-1,-1,-1,-1,-1,-1,-1,-1,-1,-1,-1,-1,-1,-1,-1,-1,-1,-1,-1,-1,-1,-1,-1,-1,-1],"split_conditions":[8.23425E-2,-8.5762966E-1,6.409895E-1,3.655319E-1,-3.6957788E-1,1.122912E0,1.1490525E0,-1.2206112E0,-1.1650245E0,2.7693644E-1,-5.4006165E-1,3.2525665E-1,2.775612E-1,-8.06359E-1,-4.2258176E-1,-7.769502E-1,1.5333265E-1,-4.871821E-1,1.122912E0,-1.1737797E0,-1.947732E-1,-6.802104E-1,-4.7131917E-1,-6.5000707E-1,-5.5857885E-1,-1.4987491E-3,2.835666E-1,7.12242E-2,-4.179046E-1,-2.6439437E-1,-4.970583E-1,-4.5300872E-4,1.4510907E-3,9.410441E-4,1.1597135E-3,6.999428E-4,1.8079056E-3,1.0631012E-3,1.4739566E-3,-1.6346574E-3,5.682858E-4,6.128658E-4,9.399794E-4,-4.238377E-4,-1.5551917E-3,1.5259444E-5,3.3373514E-4,-6.920509E-4,-1.8538932E-4,-1.562685E-3,-6.821917E-4,5.680181E-4,1.611314E-3,-4.1139127E-5,2.0967722E-4,-1.466867E-3,-6.7568664E-4,-1.6712908E-3,-9.3047443E-4,-1.6003054E-3,-2.1667772E-3,-1.575492E-3,-1.1040702E-3],"split_indices":[0,0,0,5,0,1,0,0,0,1,2,0,5,1,2,4,3,3,1,4,3,4,1,1,2,4,0,4,5,3,4,0,0,0,0,0,0,0,0,0,0,0,0,0,0,0,0,0,0,0,0,0,0,0,0,0,0,0,0,0,0,0,0],"split_type":[0,0,0,0,0,0,0,0,0,0,0,0,0,0,0,0,0,0,0,0,0,0,0,0,0,0,0,0,0,0,0,0,0,0,0,0,0,0,0,0,0,0,0,0,0,0,0,0,0,0,0,0,0,0,0,0,0,0,0,0,0,0,0],"sum_hessian":[4.225E3,2.408E3,1.817E3,1.221E3,1.187E3,5.28E2,1.289E3,8.99E2,3.22E2,7.6E2,4.27E2,5.2E2,8E0,5.94E2,6.95E2,1.16E2,7.83E2,9E1,2.32E2,3.96E2,3.64E2,5E0,4.22E2,1.79E2,3.41E2,6E0,2E0,2.48E2,3.46E2,4.35E2,2.6E2,1E0,1.15E2,4.39E2,3.44E2,5E0,8.5E1,7.9E1,1.53E2,1E0,3.95E2,1.31E2,2.33E2,2E0,3E0,1.4E2,2.82E2,5.1E1,1.28E2,2.2E1,3.19E2,3E0,3E0,1E0,1E0,2.17E2,3.1E1,3.1E1,3.15E2,3.67E2,6.8E1,9.9E1,1.61E2],"tree_param":{"num_deleted":"0","num_feature":"6","num_nodes":"63","size_leaf_vector":"1"}},{"base_weights":[-1.825596E-5,1.6949054E-2,-2.0798737E-2,2.2602947E-2,1.0686842E-2,-9.812401E-3,-2.5986219E-2,2.072571E-2,2.7763663E-2,1.3049117E-2,5.4603145E-3,-5.8719474E-3,-1.43887745E-2,-2.2006778E-2,-2.9350847E-2,2.7196491E-2,1.973361E-2,2.5913237E-2,3.5286594E-2,9.937601E-3,1.5154252E-2,3.3041933E-3,1.0310927E-2,-1.567199E-2,-3.4090236E-3,-9.850729E-3,-1.9929128E-2,-2.3065727E-2,-1.0970527E-2,-3.0750094E-2,-1.9202659E-2,1.1320069E-3,1.6135665E-3,8.566845E-4,1.0740181E-3,1.7291202E-3,1.2078199E-3,1.3438314E-3,1.9091003E-3,6.616297E-5,5.794558E-4,6.463532E-4,1.0090403E-3,-1.8257321E-3,1.8111248E-4,7.3951314E-4,2.5951333E-4,-2.014221E-3,-6.7171716E-4,1.5032251E-5,-3.9814538E-4,-1.2367545E-3,-3.8110965E-4,-1.0750281E-3,2.2478103E-5,-1.3029565E-3,-1.0226023E-3,-1.1040956E-3,1.9193912E-4,-1.8961908E-3,-1.45656E-3,2.1083695E-4,-1.0494743E-3],"categories":[],"categories_nodes":[],"categories_segments":[],"categories_sizes":[],"default_left":[0,0,0,0,0,0,0,0,0,0,0,0,0,0,0,0,0,0,0,0,0,0,0,0,0,0,0,0,0,0,0,0,0,0,0,0,0,0,0,0,0,0,0,0,0,0,0,0,0,0,0,0,0,0,0,0,0,0,0,0,0,0,0],"id":12,"left_children":[1,3,5,7,9,11,13,15,17,19,21,23,25,27,29,31,33,35,37,39,41,43,45,47,49,51,53,55,57,59,61,-1,-1,-1,-1,-1,-1,-1,-1,-1,-1,-1,-1,-1,-1,-1,-1,-1,-1,-1,-1,-1,-1,-1,-1,-1,-1,-1,-1,-1,-1,-1,-1],"loss_changes":[1.4903929E0,8.21479E-2,1.0802877E-1,1.1263192E-2,1.3583973E-2,1.0933664E-2,1.6626298E-2,5.2410066E-3,3.581971E-3,4.8340857E-3,3.584575E-3,7.911706E-3,6.8938285E-3,6.700635E-3,9.292662E-3,1.9747466E-3,3.1924546E-3,3.1701922E-3,4.5916438E-4,4.3949466E-3,4.7992915E-3,3.1844396E-3,2.3545735E-3,3.093684E-3,4.479146E-3,5.0192056E-3,4.044667E-3,3.7074983E-3,8.970572E-3,5.9794188E-3,3.7291497E-3,0E0,0E0,0E0,0E0,0E0,0E0,0E0,0E0,0E0,0E0,0E0,0E0,0E0,0E0,0E0,0E0,0E0,0E0,0E0,0E0,0E0,0E0,0E0,0E0,0E0,0E0,0E0,0E0,0E0,0E0,0E0,0E0],"parents":[2147483647,0,0,1,1,2,2,3,3,4,4,5,5,6,6,7,7,8,8,9,9,10,10,11,11,12,12,13,13,14,14,15,15,16,16,17,17,18,18,19,19,20,20,21,21,22,22,23,23,24,24,25,25,26,26,27,27,28,28,29,29,30,30],"right_children":[2,4,6,8,10,12,14,16,18,20,22,24,26,28,30,32,34,36,38,40,42,44,46,48,50,52,54,56,58,60,62,-1,-1,-1,-1,-1,-1,-1,-1,-1,-1,-1,-1,-1,-1,-1,-1,-1,-1,-1,-1,-1,-1,-1,-1,-1,-1,-1,-1,-1,-1,-1,-1],"split_conditions":[-8.263927E-3,-8.5762966E-1,6.409895E-1,3.655319E-1,-3.6957788E-1,4.0141052E-1,1.1490525E0,-1.2206112E0,2.5663753E0,-2.0869742E-1,-5.439542E-3,-7.3935103E-1,-4.3148518E-1,1.3175252E-1,-2.9821527E-1,6.8920754E-2,2.2668047E-1,-1.205047E0,1.5333265E-1,-4.9086317E-1,7.1528023E-1,-4.3016076E-1,-1.6068505E-2,1.7861852E-2,-2.6856476E-1,-5.4820836E-1,5.8964026E-1,-8.06359E-1,-3.0211335E-1,-1.3033347E0,-2.563353E-1,1.1320069E-3,1.6135665E-3,8.566845E-4,1.0740181E-3,1.7291202E-3,1.2078199E-3,1.3438314E-3,1.9091003E-3,6.616297E-5,5.794558E-4,6.463532E-4,1.0090403E-3,-1.8257321E-3,1.8111248E-4,7.3951314E-4,2.5951333E-4,-2.014221E-3,-6.7171716E-4,1.5032251E-5,-3.9814538E-4,-1.2367545E-3,-3.8110965E-4,-1.0750281E-3,2.2478103E-5,-1.3029565E-3,-1.0226023E-3,-1.1040956E-3,1.9193912E-4,-1.8961908E-3,-1.45656E-3,2.1083695E-4,-1.0494743E-3],"split_indices":[0,0,0,5,0,0,0,0,1,3,2,1,3,1,1,2,1,0,3,1,1,5,5,0,5,2,1,1,5,1,1,0,0,0,0,0,0,0,0,0,0,0,0,0,0,0,0,0,0,0,0,0,0,0,0,0,0,0,0,0,0,0,0],"split_type":[0,0,0,0,0,0,0,0,0,0,0,0,0,0,0,0,0,0,0,0,0,0,0,0,0,0,0,0,0,0,0,0,0,0,0,0,0,0,0,0,0,0,0,0,0,0,0,0,0,0,0,0,0,0,0,0,0,0,0,0,0,0,0],"sum_hessian":[4.225E3,2.326E3,1.899E3,1.221E3,1.105E3,6.1E2,1.289E3,8.99E2,3.22E2,7.6E2,3.45E2,3.29E2,2.81E2,5.94E2,6.95E2,1.16E2,7.83E2,2.62E2,6E1,3.09E2,4.51E2,2.4E2,1.05E2,6.5E1,2.64E2,1.56E2,1.25E2,5.41E2,5.3E1,6.09E2,8.6E1,6.4E1,5.2E1,3.19E2,4.64E2,4.1E1,2.21E2,1.8E1,4.2E1,5E1,2.59E2,3.15E2,1.36E2,1E0,2.39E2,5.5E1,5E1,4E0,6.1E1,1.46E2,1.18E2,1.9E1,1.37E2,1.16E2,9E0,2.48E2,2.93E2,3E1,2.3E1,1.08E2,5.01E2,6E0,8E1],"tree_param":{"num_deleted":"0","num_feature":"6","num_nodes":"63","size_leaf_vector":"1"}},{"base_weights":[-1.7500692E-5,1.5116375E-2,-2.1066247E-2,1.9497862E-2,5.8867973E-3,-1.36113595E-2,-2.6067961E-2,2.3675777E-2,1.6257241E-2,9.012359E-3,6.647656E-4,-1.5700987E-2,-5.2599045E-3,-3.7743483E-2,-2.5364714E-2,2.1146702E-2,2.7794916E-2,1.5733585E-2,3.020479E-2,4.974665E-3,1.0403256E-2,-1.6212897E-2,1.9373058E-3,-1.1997207E-2,-1.9874852E-2,-6.7521846E-3,1.7874539E-2,-3.821062E-2,-2.779156E-4,-4.1710276E-2,-2.4868269E-2,8.1980176E-4,1.1170806E-3,7.0459465E-4,1.4469917E-3,6.630841E-4,8.7564794E-4,1.5660919E-3,-1.3851971E-4,5.218705E-4,1.5324603E-4,9.912122E-4,4.8441748E-4,-4.7861505E-4,-2.102118E-3,5.5242795E-6,4.1499647E-4,-1.1238707E-3,-5.340802E-4,-2.4557153E-3,-9.5632666E-4,1.3281331E-4,-4.345343E-4,-1.1317233E-4,1.19758E-3,-1.7137163E-3,-2.4448484E-3,-2.1710342E-3,1.1176914E-4,-1.2565379E-3,-1.7757577E-4],"categories":[],"categories_nodes":[],"categories_segments":[],"categories_sizes":[],"default_left":[0,0,0,0,0,0,0,0,0,0,0,0,0,0,0,0,0,0,0,0,0,0,0,0,0,0,0,0,0,0,0,0,0,0,0,0,0,0,0,0,0,0,0,0,0,0,0,0,0,0,0,0,0,0,0,0,0,0,0,0,0],"id":13,"left_children":[1,3,5,7,9,11,13,15,17,19,21,23,25,27,29,31,33,35,37,39,41,43,45,47,49,51,53,55,-1,57,59,-1,-1,-1,-1,-1,-1,-1,-1,-1,-1,-1,-1,-1,-1,-1,-1,-1,-1,-1,-1,-1,-1,-1,-1,-1,-1,-1,-1,-1,-1],"loss_changes":[1.346507E0,9.932536E-2,6.556904E-2,2.218467E-2,1.2937183E-2,1.234284E-2,7.7214837E-3,6.9754124E-3,6.4048767E-3,2.733793E-3,6.4317062E-3,8.557767E-3,5.092014E-3,6.5963715E-4,7.077396E-3,2.2108704E-3,3.8752258E-3,3.7703216E-3,1.3023261E-3,1.3137956E-3,2.2864603E-3,3.1995415E-3,3.2303797E-3,3.951397E-3,4.880823E-3,2.5034924E-3,1.1556309E-3,7.2176754E-4,0E0,2.2016838E-3,5.3550005E-3,0E0,0E0,0E0,0E0,0E0,0E0,0E0,0E0,0E0,0E0,0E0,0E0,0E0,0E0,0E0,0E0,0E0,0E0,0E0,0E0,0E0,0E0,0E0,0E0,0E0,0E0,0E0,0E0,0E0,0E0],"parents":[2147483647,0,0,1,1,2,2,3,3,4,4,5,5,6,6,7,7,8,8,9,9,10,10,11,11,12,12,13,13,14,14,15,15,16,16,17,17,18,18,19,19,20,20,21,21,22,22,23,23,24,24,25,25,26,26,27,27,29,29,30,30],"right_children":[2,4,6,8,10,12,14,16,18,20,22,24,26,28,30,32,34,36,38,40,42,44,46,48,50,52,54,56,-1,58,60,-1,-1,-1,-1,-1,-1,-1,-1,-1,-1,-1,-1,-1,-1,-1,-1,-1,-1,-1,-1,-1,-1,-1,-1,-1,-1,-1,-1,-1,-1],"split_conditions":[1.7350478E-1,-6.3695025E-1,8.372108E-1,-1.02439E0,-1.8002702E-1,-2.45994E-2,-5.9286326E-1,1.4718242E-1,2.3513913E0,-4.9086317E-1,-4.901032E-1,5.820675E-1,1.3099759E0,-1.0835936E-1,-1.1394892E0,-1.9526102E-1,-4.7325787E-1,2.4622446E-1,2.2280436E0,-3.378886E-1,-7.703879E-1,-3.1191E-1,9.171502E-2,-5.2864414E-1,-4.3016076E-1,2.624436E-1,-3.8310596E-1,-5.1503056E-1,-2.779156E-4,-2.2600426E-1,6.0639226E-1,8.1980176E-4,1.1170806E-3,7.0459465E-4,1.4469917E-3,6.630841E-4,8.7564794E-4,1.5660919E-3,-1.3851971E-4,5.218705E-4,1.5324603E-4,9.912122E-4,4.8441748E-4,-4.7861505E-4,-2.102118E-3,5.5242795E-6,4.1499647E-4,-1.1238707E-3,-5.340802E-4,-2.4557153E-3,-9.5632666E-4,1.3281331E-4,-4.345343E-4,-1.1317233E-4,1.19758E-3,-1.7137163E-3,-2.4448484E-3,-2.1710342E-3,1.1176914E-4,-1.2565379E-3,-1.7757577E-4],"split_indices":[0,0,0,0,0,1,2,5,1,1,2,0,1,1,4,2,3,1,3,2,4,5,2,2,5,0,4,3,0,2,1,0,0,0,0,0,0,0,0,0,0,0,0,0,0,0,0,0,0,0,0,0,0,0,0,0,0,0,0,0,0],"split_type":[0,0,0,0,0,0,0,0,0,0,0,0,0,0,0,0,0,0,0,0,0,0,0,0,0,0,0,0,0,0,0,0,0,0,0,0,0,0,0,0,0,0,0,0,0,0,0,0,0,0,0,0,0,0,0,0,0,0,0,0,0],"sum_hessian":[4.225E3,2.458E3,1.767E3,1.666E3,7.92E2,7.11E2,1.056E3,7.25E2,9.41E2,4.95E2,2.97E2,5.68E2,1.43E2,5.7E1,9.99E2,4.53E2,2.72E2,9.09E2,3.2E1,1.28E2,3.67E2,2E1,2.77E2,3.03E2,2.65E2,1.35E2,8E0,5.6E1,1E0,2.7E1,9.72E2,9.4E1,3.59E2,2.2E1,2.5E2,3.84E2,5.25E2,3.1E1,1E0,3.2E1,9.6E1,2.4E1,3.43E2,1.7E1,3E0,2.16E2,6.1E1,3.2E1,2.71E2,5E0,2.6E2,2.3E1,1.12E2,2E0,6E0,4.4E1,1.2E1,2.6E1,1E0,9.6E2,1.2E1],"tree_param":{"num_deleted":"0","num_feature":"6","num_nodes":"61","size_leaf_vector":"1"}},{"base_weights":[-1.785915E-5,1.5311495E-2,-1.8792275E-2,2.0448409E-2,9.621966E-3,-8.890799E-3,-2.3467476E-2,1.8741973E-2,2.5139874E-2,1.1742424E-2,4.930375E-3,-5.3219553E-3,-1.3035577E-2,-2.6907355E-2,-2.006019E-2,2.4786629E-2,1.7815996E-2,1.9395724E-2,2.714241E-2,8.823319E-3,1.3718486E-2,-1.7802268E-3,5.1510693E-3,-1.44588305E-2,-3.0262736E-3,-8.703646E-3,-1.8329844E-2,-2.344359E-2,-2.9509801E-2,-3.2347016E-2,-1.8783176E-2,8.030119E-4,1.3551698E-3,7.996876E-4,1.0044188E-3,1.15745E-3,5.5454654E-4,1.2453443E-3,1.5732095E-3,1.292186E-4,5.4193E-4,5.8318395E-4,9.1789535E-4,1.6195247E-4,4.7157882E-4,-1.9379681E-3,-6.132952E-4,2.5379151E-5,-3.6830976E-4,-1.1263023E-3,-3.318665E-4,-1.2742546E-3,-6.9485063E-4,-8.219907E-4,-1.2922854E-3,-1.7548644E-3,-1.3377547E-3,-6.199956E-4,-1.7811978E-3,-1.0331899E-3,-5.638209E-4],"categories":[],"categories_nodes":[],"categories_segments":[],"categories_sizes":[],"default_left":[0,0,0,0,0,0,0,0,0,0,0,0,0,0,0,0,0,0,0,0,0,0,0,0,0,0,0,0,0,0,0,0,0,0,0,0,0,0,0,0,0,0,0,0,0,0,0,0,0,0,0,0,0,0,0,0,0,0,0,0,0],"id":14,"left_children":[1,3,5,7,9,11,13,15,17,19,21,23,25,27,29,31,33,35,37,39,41,-1,43,45,47,49,51,53,55,57,59,-1,-1,-1,-1,-1,-1,-1,-1,-1,-1,-1,-1,-1,-1,-1,-1,-1,-1,-1,-1,-1,-1,-1,-1,-1,-1,-1,-1,-1,-1],"loss_changes":[1.2165293E0,6.7813575E-2,8.774501E-2,9.311736E-3,1.0944948E-2,8.968577E-3,1.4579892E-2,4.5959353E-3,3.1889826E-3,4.268661E-3,3.2786522E-3,6.8781124E-3,6.3079633E-3,5.0682724E-3,9.622574E-3,1.9301027E-3,2.925098E-3,2.4550594E-3,1.5060902E-3,3.86969E-3,4.0948465E-3,0E0,2.7930737E-3,3.0416762E-3,4.0679537E-3,4.334635E-3,3.642302E-3,4.268959E-3,4.6174526E-3,3.480196E-3,8.138597E-3,0E0,0E0,0E0,0E0,0E0,0E0,0E0,0E0,0E0,0E0,0E0,0E0,0E0,0E0,0E0,0E0,0E0,0E0,0E0,0E0,0E0,0E0,0E0,0E0,0E0,0E0,0E0,0E0,0E0,0E0],"parents":[2147483647,0,0,1,1,2,2,3,3,4,4,5,5,6,6,7,7,8,8,9,9,10,10,11,11,12,12,13,13,14,14,15,15,16,16,17,17,18,18,19,19,20,20,22,22,23,23,24,24,25,25,26,26,27,27,28,28,29,29,30,30],"right_children":[2,4,6,8,10,12,14,16,18,20,22,24,26,28,30,32,34,36,38,40,42,-1,44,46,48,50,52,54,56,58,60,-1,-1,-1,-1,-1,-1,-1,-1,-1,-1,-1,-1,-1,-1,-1,-1,-1,-1,-1,-1,-1,-1,-1,-1,-1,-1,-1,-1,-1,-1],"split_conditions":[-8.263927E-3,-8.5762966E-1,6.409895E-1,3.655319E-1,-3.6957788E-1,4.0141052E-1,-8.06359E-1,-1.2206112E0,9.581841E-1,-2.0869742E-1,-4.3016076E-1,-7.3935103E-1,-4.3148518E-1,1.2001923E0,-4.167762E-1,-3.3401552E-1,1.5333265E-1,1.0316205E0,6.5460503E-1,-2.8425527E-1,7.1528023E-1,-1.7802268E-3,-5.439542E-3,1.7861852E-2,-2.6856476E-1,-5.4820836E-1,-4.1180533E-1,-3.8597316E-1,-3.7701637E-1,8.177554E-1,-9.439936E-2,8.030119E-4,1.3551698E-3,7.996876E-4,1.0044188E-3,1.15745E-3,5.5454654E-4,1.2453443E-3,1.5732095E-3,1.292186E-4,5.4193E-4,5.8318395E-4,9.1789535E-4,1.6195247E-4,4.7157882E-4,-1.9379681E-3,-6.132952E-4,2.5379151E-5,-3.6830976E-4,-1.1263023E-3,-3.318665E-4,-1.2742546E-3,-6.9485063E-4,-8.219907E-4,-1.2922854E-3,-1.7548644E-3,-1.3377547E-3,-6.199956E-4,-1.7811978E-3,-1.0331899E-3,-5.638209E-4],"split_indices":[0,0,0,5,0,0,1,0,1,3,5,1,3,0,5,3,3,2,3,1,1,0,2,0,5,2,2,5,5,0,1,0,0,0,0,0,0,0,0,0,0,0,0,0,0,0,0,0,0,0,0,0,0,0,0,0,0,0,0,0,0],"split_type":[0,0,0,0,0,0,0,0,0,0,0,0,0,0,0,0,0,0,0,0,0,0,0,0,0,0,0,0,0,0,0,0,0,0,0,0,0,0,0,0,0,0,0,0,0,0,0,0,0,0,0,0,0,0,0,0,0,0,0,0,0],"sum_hessian":[4.225E3,2.326E3,1.899E3,1.221E3,1.105E3,6.1E2,1.289E3,8.99E2,3.22E2,7.6E2,3.45E2,3.29E2,2.81E2,6.38E2,6.51E2,1.16E2,7.83E2,8.6E1,2.36E2,3.09E2,4.51E2,1E0,3.44E2,6.5E1,2.64E2,1.56E2,1.25E2,2.78E2,3.6E2,5.9E1,5.92E2,2.6E1,9E1,4.39E2,3.44E2,5.8E1,2.8E1,1.6E2,7.6E1,7.6E1,2.33E2,3.15E2,1.36E2,2.39E2,1.05E2,4E0,6.1E1,1.46E2,1.18E2,1.9E1,1.37E2,4.6E1,7.9E1,7.3E1,2.05E2,1.15E2,2.45E2,9E0,5E1,4.72E2,1.2E2],"tree_param":{"num_deleted":"0","num_feature":"6","num_nodes":"61","size_leaf_vector":"1"}},{"base_weights":[-1.8387384E-5,1.3656121E-2,-1.903739E-2,1.893888E-2,7.3545137E-3,-1.2743325E-2,-2.3936843E-2,2.1574087E-2,1.6078202E-2,1.0004257E-2,9.841177E-4,-1.3871733E-2,-7.9060916E-4,-2.6679052E-2,-2.1101585E-2,1.9284539E-2,2.5336167E-2,1.5460021E-2,3.0201064E-2,8.304955E-3,1.4337573E-2,-1.1988756E-2,1.9465514E-3,-4.3422833E-2,-1.3386849E-2,-1.0380673E-2,4.6762596E-3,-2.500091E-2,-3.32408E-2,-2.2969529E-2,-1.2710109E-2,7.2561734E-4,1.0217944E-3,6.373901E-4,1.3168125E-3,2.1444532E-4,7.9222507E-4,1.5870173E-3,6.899968E-4,-1.628086E-3,4.2167763E-4,4.5894683E-4,8.7355933E-4,2.490601E-4,-1.1626908E-3,2.0083987E-4,-1.4900955E-4,-1.1661941E-3,-2.5787984E-3,-5.194997E-4,-8.1474223E-4,4.8840273E-4,-6.786115E-4,6.750116E-5,1.1032467E-3,-1.602282E-3,-1.1592152E-3,-2.0687168E-3,-1.3632213E-3,-1.1045699E-3,-1.9754057E-3,6.173723E-4,-7.4594683E-4],"categories":[],"categories_nodes":[],"categories_segments":[],"categories_sizes":[],"default_left":[0,0,0,0,0,0,0,0,0,0,0,0,0,0,0,0,0,0,0,0,0,0,0,0,0,0,0,0,0,0,0,0,0,0,0,0,0,0,0,0,0,0,0,0,0,0,0,0,0,0,0,0,0,0,0,0,0,0,0,0,0,0,0],"id":15,"left_children":[1,3,5,7,9,11,13,15,17,19,21,23,25,27,29,31,33,35,37,39,41,43,45,47,49,51,53,55,57,59,61,-1,-1,-1,-1,-1,-1,-1,-1,-1,-1,-1,-1,-1,-1,-1,-1,-1,-1,-1,-1,-1,-1,-1,-1,-1,-1,-1,-1,-1,-1,-1,-1],"loss_changes":[1.099339E0,8.172053E-2,5.421561E-2,9.732068E-3,1.8946301E-2,1.0455355E-2,7.1575046E-3,5.480528E-3,5.1642656E-3,5.7202727E-3,4.156047E-3,9.57787E-3,3.613621E-3,4.6857297E-3,7.435739E-3,2.0935088E-3,2.9249191E-3,2.5949925E-3,2.1838024E-4,3.280636E-3,3.4283064E-3,4.5126863E-3,3.163638E-3,5.9961155E-4,5.922377E-3,1.7402195E-3,2.5151207E-3,4.4144094E-3,3.684245E-3,4.965484E-3,5.276208E-3,0E0,0E0,0E0,0E0,0E0,0E0,0E0,0E0,0E0,0E0,0E0,0E0,0E0,0E0,0E0,0E0,0E0,0E0,0E0,0E0,0E0,0E0,0E0,0E0,0E0,0E0,0E0,0E0,0E0,0E0,0E0,0E0],"parents":[2147483647,0,0,1,1,2,2,3,3,4,4,5,5,6,6,7,7,8,8,9,9,10,10,11,11,12,12,13,13,14,14,15,15,16,16,17,17,18,18,19,19,20,20,21,21,22,22,23,23,24,24,25,25,26,26,27,27,28,28,29,29,30,30],"right_children":[2,4,6,8,10,12,14,16,18,20,22,24,26,28,30,32,34,36,38,40,42,44,46,48,50,52,54,56,58,60,62,-1,-1,-1,-1,-1,-1,-1,-1,-1,-1,-1,-1,-1,-1,-1,-1,-1,-1,-1,-1,-1,-1,-1,-1,-1,-1,-1,-1,-1,-1,-1,-1],"split_conditions":[1.7350478E-1,-8.0037534E-1,8.889064E-1,-1.0349514E0,-2.0837627E-1,3.8861638E-1,-8.34279E-1,1.4718242E-1,2.3513913E0,5.756803E-1,-4.901032E-1,-4.3016076E-1,-3.465197E-1,-2.6439437E-1,-2.3738228E-1,-2.0112087E-1,-4.871821E-1,-4.0844765E-1,-8.2205415E-1,-1.1737797E0,-1.5300049E-1,-4.0260756E-1,-8.762217E-2,-6.125002E-1,5.820675E-1,-4.239105E-1,1.3769839E0,-7.926566E-1,-4.861703E-1,-2.7681866E-1,-7.5610304E-1,7.2561734E-4,1.0217944E-3,6.373901E-4,1.3168125E-3,2.1444532E-4,7.9222507E-4,1.5870173E-3,6.899968E-4,-1.628086E-3,4.2167763E-4,4.5894683E-4,8.7355933E-4,2.490601E-4,-1.1626908E-3,2.0083987E-4,-1.4900955E-4,-1.1661941E-3,-2.5787984E-3,-5.194997E-4,-8.1474223E-4,4.8840273E-4,-6.786115E-4,6.750116E-5,1.1032467E-3,-1.602282E-3,-1.1592152E-3,-2.0687168E-3,-1.3632213E-3,-1.1045699E-3,-1.9754057E-3,6.173723E-4,-7.4594683E-4],"split_indices":[0,0,0,0,0,1,1,5,1,1,2,5,5,3,2,2,3,5,0,4,3,5,5,3,0,5,1,4,2,2,1,0,0,0,0,0,0,0,0,0,0,0,0,0,0,0,0,0,0,0,0,0,0,0,0,0,0,0,0,0,0,0,0],"split_type":[0,0,0,0,0,0,0,0,0,0,0,0,0,0,0,0,0,0,0,0,0,0,0,0,0,0,0,0,0,0,0,0,0,0,0,0,0,0,0,0,0,0,0,0,0,0,0,0,0,0,0,0,0,0,0,0,0,0,0,0,0,0,0],"sum_hessian":[4.225E3,2.458E3,1.767E3,1.336E3,1.122E3,7.75E2,9.92E2,6.92E2,6.44E2,7.92E2,3.3E2,7.08E2,6.7E1,5E2,4.92E2,4.34E2,2.58E2,6.19E2,2.5E1,5.71E2,2.21E2,2.2E1,3.08E2,1E1,6.98E2,2.4E1,4.3E1,4.02E2,9.8E1,4.01E2,9.1E1,8.7E1,3.47E2,2E1,2.38E2,2.1E1,5.98E2,2.2E1,3E0,1E0,5.7E2,8.5E1,1.36E2,9E0,1.3E1,2.17E2,9.1E1,4E0,6E0,3.46E2,3.52E2,3E0,2.1E1,3.7E1,6E0,7.9E1,3.23E2,3.9E1,5.9E1,3.83E2,1.8E1,7E0,8.4E1],"tree_param":{"num_deleted":"0","num_feature":"6","num_nodes":"63","size_leaf_vector":"1"}},{"base_weights":[-1.91846E-5,1.3831531E-2,-1.6982656E-2,1.847537E-2,8.688127E-3,-8.050866E-3,-2.1199973E-2,1.780144E-2,2.8689845E-2,1.1627868E-2,5.821851E-3,-1.3584143E-2,-5.7266983E-3,-1.7755976E-2,-2.4113737E-2,2.2762563E-2,1.661531E-2,-5.286947E-4,2.9372552E-2,1.0065649E-2,1.5324047E-2,3.4025593E-3,9.101043E-3,-6.3196E-4,-1.48439165E-2,-2.2180923E-3,-1.0142175E-2,-2.1326536E-2,-1.5142646E-2,-2.6780311E-2,-1.9566838E-2,7.171853E-4,1.2649057E-3,7.699566E-4,9.978878E-4,1.697956E-3,1.2127211E-3,5.393393E-4,-2.638423E-4,2.4301569E-4,8.147065E-4,-1.3069501E-4,2.4729018E-4,3.1793097E-4,8.565462E-4,5.984119E-4,-8.151606E-4,-9.554672E-4,-4.9480086E-4,7.3458585E-5,-3.255535E-4,-6.518802E-4,-8.581555E-5,-1.1605929E-3,-4.5679725E-4,-1.3554223E-3,-6.9415E-4,-1.2851933E-3,-2.138323E-3,-1.8221984E-3,-9.1948E-4],"categories":[],"categories_nodes":[],"categories_segments":[],"categories_sizes":[],"default_left":[0,0,0,0,0,0,0,0,0,0,0,0,0,0,0,0,0,0,0,0,0,0,0,0,0,0,0,0,0,0,0,0,0,0,0,0,0,0,0,0,0,0,0,0,0,0,0,0,0,0,0,0,0,0,0,0,0,0,0,0,0],"id":16,"left_children":[1,3,5,7,9,11,13,15,17,19,21,23,25,27,29,31,33,-1,35,37,39,41,43,45,47,49,51,53,55,57,59,-1,-1,-1,-1,-1,-1,-1,-1,-1,-1,-1,-1,-1,-1,-1,-1,-1,-1,-1,-1,-1,-1,-1,-1,-1,-1,-1,-1,-1,-1],"loss_changes":[9.9315983E-1,5.542016E-2,7.1398914E-2,7.901341E-3,9.251587E-3,7.779829E-3,1.2516975E-2,6.383151E-3,2.2941977E-3,2.9927194E-3,4.4275615E-3,2.9276498E-3,6.67012E-3,5.229041E-3,7.914782E-3,4.3119937E-3,3.477186E-3,0E0,8.899942E-4,4.327636E-3,1.5449114E-3,3.0305095E-3,5.13215E-3,3.551955E-3,3.2721013E-3,3.8402667E-3,4.637353E-3,5.510755E-3,4.853867E-3,6.4035356E-3,4.515469E-3,0E0,0E0,0E0,0E0,0E0,0E0,0E0,0E0,0E0,0E0,0E0,0E0,0E0,0E0,0E0,0E0,0E0,0E0,0E0,0E0,0E0,0E0,0E0,0E0,0E0,0E0,0E0,0E0,0E0,0E0],"parents":[2147483647,0,0,1,1,2,2,3,3,4,4,5,5,6,6,7,7,8,8,9,9,10,10,11,11,12,12,13,13,14,14,15,15,16,16,18,18,19,19,20,20,21,21,22,22,23,23,24,24,25,25,26,26,27,27,28,28,29,29,30,30],"right_children":[2,4,6,8,10,12,14,16,18,20,22,24,26,28,30,32,34,-1,36,38,40,42,44,46,48,50,52,54,56,58,60,-1,-1,-1,-1,-1,-1,-1,-1,-1,-1,-1,-1,-1,-1,-1,-1,-1,-1,-1,-1,-1,-1,-1,-1,-1,-1,-1,-1,-1,-1],"split_conditions":[-8.263927E-3,-8.5762966E-1,6.409895E-1,2.5663753E0,-5.674668E-1,-7.03055E-1,1.1490525E0,-1.1872592E0,-7.769502E-1,7.1528023E-1,-6.945509E-2,-4.1896072E-1,3.8195515E-1,-8.06359E-1,-4.2258176E-1,-2.3654589E-1,1.215048E0,-5.286947E-4,-1.1305606E0,1.0315759E0,-3.6060512E-1,-6.2767106E-1,2.9927245E-1,-3.9678803E-1,-5.287939E-1,-2.6313266E-1,-1.8368486E-1,-4.7273327E-2,-4.179046E-1,2.5080228E-1,-9.5733213E-1,7.171853E-4,1.2649057E-3,7.699566E-4,9.978878E-4,1.697956E-3,1.2127211E-3,5.393393E-4,-2.638423E-4,2.4301569E-4,8.147065E-4,-1.3069501E-4,2.4729018E-4,3.1793097E-4,8.565462E-4,5.984119E-4,-8.151606E-4,-9.554672E-4,-4.9480086E-4,7.3458585E-5,-3.255535E-4,-6.518802E-4,-8.581555E-5,-1.1605929E-3,-4.5679725E-4,-1.3554223E-3,-6.9415E-4,-1.2851933E-3,-2.138323E-3,-1.8221984E-3,-9.1948E-4],"split_indices":[0,0,0,1,0,1,0,0,4,1,3,5,0,1,2,3,1,0,0,4,5,1,1,2,4,5,2,4,5,3,4,0,0,0,0,0,0,0,0,0,0,0,0,0,0,0,0,0,0,0,0,0,0,0,0,0,0,0,0,0,0],"split_type":[0,0,0,0,0,0,0,0,0,0,0,0,0,0,0,0,0,0,0,0,0,0,0,0,0,0,0,0,0,0,0,0,0,0,0,0,0,0,0,0,0,0,0,0,0,0,0,0,0,0,0,0,0,0,0,0,0,0,0,0,0],"sum_hessian":[4.225E3,2.326E3,1.899E3,1.221E3,1.105E3,6.1E2,1.289E3,1.148E3,7.3E1,5.44E2,5.61E2,1.79E2,4.31E2,5.94E2,6.95E2,2.18E2,9.3E2,1E0,7.2E1,3.85E2,1.59E2,3.24E2,2.37E2,1.6E1,1.63E2,2.41E2,1.9E2,2.48E2,3.46E2,4.35E2,2.6E2,5.2E1,1.66E2,6.86E2,2.44E2,3.5E1,3.7E1,3.68E2,1.7E1,1.4E1,1.45E2,6.6E1,2.58E2,1.78E2,5.9E1,9E0,7E0,8.6E1,7.7E1,1.3E2,1.11E2,1.41E2,4.9E1,2.14E2,3.4E1,3.1E1,3.15E2,4.1E2,2.5E1,1.5E1,2.45E2],"tree_param":{"num_deleted":"0","num_feature":"6","num_nodes":"61","size_leaf_vector":"1"}},{"base_weights":[-1.91135E-5,1.2639275E-2,-1.6792512E-2,1.7294856E-2,7.274706E-3,-1.0944557E-2,-2.1640062E-2,1.666046E-2,2.7341476E-2,9.22088E-3,1.4241439E-3,-5.4926123E-3,-1.3260858E-2,-2.6585845E-2,-2.0214558E-2,2.1633472E-2,1.5551382E-2,-5.154774E-4,2.798959E-2,7.7416142E-3,1.2746964E-2,-2.2226235E-2,1.9331226E-3,-2.3441017E-2,-4.560657E-3,-4.0782012E-2,-1.2705509E-2,-3.456604E-2,-2.4496952E-2,-2.1364274E-2,-1.3823823E-2,6.8200374E-4,1.2020379E-3,7.200458E-4,9.3954446E-4,1.1773469E-3,1.6542366E-3,-1.6008675E-3,3.931225E-4,3.801556E-4,7.773029E-4,-3.211965E-4,-1.4260702E-3,-5.328107E-4,1.3744184E-4,-1.9991994E-4,-2.110862E-3,-5.8303337E-4,-1.0974759E-4,-1.0937899E-3,-2.4230226E-3,-6.7527726E-4,-8.936956E-5,-2.2712674E-3,-1.4173085E-3,-1.2694348E-3,-1.2426414E-4,-9.0191833E-4,-1.1525484E-3,-1.7562574E-3,-5.899246E-4],"categories":[],"categories_nodes":[],"categories_segments":[],"categories_sizes":[],"default_left":[0,0,0,0,0,0,0,0,0,0,0,0,0,0,0,0,0,0,0,0,0,0,0,0,0,0,0,0,0,0,0,0,0,0,0,0,0,0,0,0,0,0,0,0,0,0,0,0,0,0,0,0,0,0,0,0,0,0,0,0,0],"id":17,"left_children":[1,3,5,7,9,11,13,15,17,19,21,23,25,27,29,31,33,-1,35,37,39,41,43,45,47,49,51,53,55,57,59,-1,-1,-1,-1,-1,-1,-1,-1,-1,-1,-1,-1,-1,-1,-1,-1,-1,-1,-1,-1,-1,-1,-1,-1,-1,-1,-1,-1,-1,-1],"loss_changes":[8.974943E-1,6.00394E-2,5.1300287E-2,7.7599883E-3,1.2750812E-2,1.035817E-2,6.463468E-3,6.364852E-3,2.1187253E-3,4.2879954E-3,3.4255146E-3,4.041418E-3,8.3311945E-3,2.8039068E-3,5.3990185E-3,3.8861781E-3,3.4451634E-3,0E0,8.96018E-4,3.1102896E-3,3.4381375E-3,4.1364972E-4,2.8636176E-3,4.2119054E-3,3.9551836E-3,5.3675845E-4,4.946016E-3,1.6167313E-3,3.4111962E-3,3.2586157E-3,4.8057865E-3,0E0,0E0,0E0,0E0,0E0,0E0,0E0,0E0,0E0,0E0,0E0,0E0,0E0,0E0,0E0,0E0,0E0,0E0,0E0,0E0,0E0,0E0,0E0,0E0,0E0,0E0,0E0,0E0,0E0,0E0],"parents":[2147483647,0,0,1,1,2,2,3,3,4,4,5,5,6,6,7,7,8,8,9,9,10,10,11,11,12,12,13,13,14,14,15,15,16,16,18,18,19,19,20,20,21,21,22,22,23,23,24,24,25,25,26,26,27,27,28,28,29,29,30,30],"right_children":[2,4,6,8,10,12,14,16,18,20,22,24,26,28,30,32,34,-1,36,38,40,42,44,46,48,50,52,54,56,58,60,-1,-1,-1,-1,-1,-1,-1,-1,-1,-1,-1,-1,-1,-1,-1,-1,-1,-1,-1,-1,-1,-1,-1,-1,-1,-1,-1,-1,-1,-1],"split_conditions":[8.23425E-2,-8.2205415E-1,8.889064E-1,2.5663753E0,-2.0837627E-1,4.0141052E-1,-5.344064E-1,-1.1872592E0,-7.769502E-1,5.756803E-1,-5.4006165E-1,-1.0799749E0,-4.3016076E-1,-7.81603E-1,-2.9821527E-1,-2.3654589E-1,1.215048E0,-5.154774E-4,5.571354E-1,-1.1737797E0,-2.0869742E-1,-6.802104E-1,-8.710274E-1,-1.1860708E0,-4.2995384E-1,-6.125002E-1,4.4166437E-1,-1.2084068E0,2.277464E0,1.2001923E0,-4.1896072E-1,6.8200374E-4,1.2020379E-3,7.200458E-4,9.3954446E-4,1.1773469E-3,1.6542366E-3,-1.6008675E-3,3.931225E-4,3.801556E-4,7.773029E-4,-3.211965E-4,-1.4260702E-3,-5.328107E-4,1.3744184E-4,-1.9991994E-4,-2.110862E-3,-5.8303337E-4,-1.0974759E-4,-1.0937899E-3,-2.4230226E-3,-6.7527726E-4,-8.936956E-5,-2.2712674E-3,-1.4173085E-3,-1.2694348E-3,-1.2426414E-4,-9.0191833E-4,-1.1525484E-3,-1.7562574E-3,-5.899246E-4],"split_indices":[0,0,0,1,0,0,2,0,4,1,2,1,5,4,1,3,1,0,3,4,3,4,4,1,2,3,1,1,0,0,5,0,0,0,0,0,0,0,0,0,0,0,0,0,0,0,0,0,0,0,0,0,0,0,0,0,0,0,0,0,0],"split_type":[0,0,0,0,0,0,0,0,0,0,0,0,0,0,0,0,0,0,0,0,0,0,0,0,0,0,0,0,0,0,0,0,0,0,0,0,0,0,0,0,0,0,0,0,0,0,0,0,0,0,0,0,0,0,0,0,0,0,0,0,0],"sum_hessian":[4.225E3,2.408E3,1.817E3,1.288E3,1.12E3,8.25E2,9.92E2,1.214E3,7.4E1,8.4E2,2.8E2,2.47E2,5.78E2,2.18E2,7.74E2,2.18E2,9.96E2,1E0,7.3E1,5.94E2,2.46E2,5E0,2.75E2,1.1E1,2.36E2,1E1,5.68E2,4.2E1,1.76E2,6.54E2,1.2E2,5.2E1,1.66E2,7.39E2,2.57E2,4.2E1,3.1E1,1E0,5.93E2,8.8E1,1.58E2,2E0,3E0,1.6E1,2.59E2,6E0,5E0,5.8E1,1.78E2,4E0,6E0,5.29E2,3.9E1,1.3E1,2.9E1,1.69E2,7E0,2.24E2,4.3E2,9E0,1.11E2],"tree_param":{"num_deleted":"0","num_feature":"6","num_nodes":"61","size_leaf_vector":"1"}},{"base_weights":[-2.1257829E-5,1.1722655E-2,-1.6355116E-2,1.5154406E-2,4.493837E-3,-1.0943589E-2,-2.0567592E-2,1.7467929E-2,1.1442874E-2,6.8950043E-3,4.8218237E-4,-1.1962984E-2,-1.5396494E-4,-2.5279744E-2,-1.9209491E-2,1.55424E-2,2.0413358E-2,1.193059E-2,4.179824E-3,3.4676143E-3,8.077717E-3,-1.4191855E-2,1.5889183E-3,-3.9062604E-2,-1.1519409E-2,-9.244838E-3,5.014803E-3,-3.292353E-2,-2.3279954E-2,-2.0299174E-2,-1.3152039E-2,9.054116E-4,6.786347E-4,1.2456309E-3,9.283965E-4,5.0428935E-4,6.9337623E-4,-1.5588575E-4,7.547447E-4,4.3225233E-4,8.352356E-5,7.829684E-4,3.642062E-4,-3.9363452E-4,-1.9540065E-3,-5.138157E-5,2.6532644E-4,-2.3224219E-3,-1.0454959E-3,-7.220718E-4,-4.5836173E-4,4.949711E-4,-6.1526964E-4,6.508462E-4,-7.937432E-5,-2.1658142E-3,-1.3488065E-3,-1.2063351E-3,-1.18827076E-4,-8.5702195E-4,-1.0950534E-3,-1.6772262E-3,-5.606926E-4],"categories":[],"categories_nodes":[],"categories_segments":[],"categories_sizes":[],"default_left":[0,0,0,0,0,0,0,0,0,0,0,0,0,0,0,0,0,0,0,0,0,0,0,0,0,0,0,0,0,0,0,0,0,0,0,0,0,0,0,0,0,0,0,0,0,0,0,0,0,0,0,0,0,0,0,0,0,0,0,0,0,0,0],"id":18,"left_children":[1,3,5,7,9,11,13,15,17,19,21,23,25,27,29,31,33,35,37,39,41,43,45,47,49,51,53,55,57,59,61,-1,-1,-1,-1,-1,-1,-1,-1,-1,-1,-1,-1,-1,-1,-1,-1,-1,-1,-1,-1,-1,-1,-1,-1,-1,-1,-1,-1,-1,-1,-1,-1],"loss_changes":[8.108374E-1,6.093353E-2,4.0078104E-2,1.4114201E-2,7.63537E-3,8.5332915E-3,5.86918E-3,5.496025E-3,2.2278354E-3,1.9825865E-3,4.862155E-3,8.0727115E-3,3.2415867E-3,2.5811642E-3,4.8485696E-3,2.9078722E-3,2.8752536E-3,2.0112395E-3,3.3924936E-3,1.1858505E-3,2.100097E-3,2.9950687E-3,2.709646E-3,5.03568E-4,4.6719164E-3,1.5866179E-3,2.3452863E-3,1.4893189E-3,3.0755475E-3,2.9388666E-3,4.406294E-3,0E0,0E0,0E0,0E0,0E0,0E0,0E0,0E0,0E0,0E0,0E0,0E0,0E0,0E0,0E0,0E0,0E0,0E0,0E0,0E0,0E0,0E0,0E0,0E0,0E0,0E0,0E0,0E0,0E0,0E0,0E0,0E0],"parents":[2147483647,0,0,1,1,2,2,3,3,4,4,5,5,6,6,7,7,8,8,9,9,10,10,11,11,12,12,13,13,14,14,15,15,16,16,17,17,18,18,19,19,20,20,21,21,22,22,23,23,24,24,25,25,26,26,27,27,28,28,29,29,30,30],"right_children":[2,4,6,8,10,12,14,16,18,20,22,24,26,28,30,32,34,36,38,40,42,44,46,48,50,52,54,56,58,60,62,-1,-1,-1,-1,-1,-1,-1,-1,-1,-1,-1,-1,-1,-1,-1,-1,-1,-1,-1,-1,-1,-1,-1,-1,-1,-1,-1,-1,-1,-1,-1,-1],"split_conditions":[1.7350478E-1,-6.3695025E-1,8.889064E-1,-9.3044835E-1,-1.8002702E-1,3.8861638E-1,-5.344064E-1,7.771175E-2,1.0315759E0,-4.9086317E-1,-4.901032E-1,-4.3016076E-1,-3.465197E-1,-7.81603E-1,-2.9821527E-1,-1.1216668E0,-1.1650245E0,1.6607852E-4,5.0029635E-1,-3.378886E-1,-7.1132743E-1,-3.1191E-1,-1.2200526E-1,-4.2106318E-1,-4.0526253E-1,-4.239105E-1,-1.9503263E-1,-1.2084068E0,2.277464E0,1.2001923E0,-4.1896072E-1,9.054116E-4,6.786347E-4,1.2456309E-3,9.283965E-4,5.0428935E-4,6.9337623E-4,-1.5588575E-4,7.547447E-4,4.3225233E-4,8.352356E-5,7.829684E-4,3.642062E-4,-3.9363452E-4,-1.9540065E-3,-5.138157E-5,2.6532644E-4,-2.3224219E-3,-1.0454959E-3,-7.220718E-4,-4.5836173E-4,4.949711E-4,-6.1526964E-4,6.508462E-4,-7.937432E-5,-2.1658142E-3,-1.3488065E-3,-1.2063351E-3,-1.18827076E-4,-8.5702195E-4,-1.0950534E-3,-1.6772262E-3,-5.606926E-4],"split_indices":[0,0,0,0,0,1,2,5,4,1,2,5,5,4,1,0,0,3,1,2,4,5,2,1,2,5,5,1,0,0,5,0,0,0,0,0,0,0,0,0,0,0,0,0,0,0,0,0,0,0,0,0,0,0,0,0,0,0,0,0,0,0,0],"split_type":[0,0,0,0,0,0,0,0,0,0,0,0,0,0,0,0,0,0,0,0,0,0,0,0,0,0,0,0,0,0,0,0,0,0,0,0,0,0,0,0,0,0,0,0,0,0,0,0,0,0,0,0,0,0,0,0,0,0,0,0,0,0,0],"sum_hessian":[4.225E3,2.458E3,1.767E3,1.666E3,7.92E2,7.75E2,9.92E2,1.024E3,6.42E2,4.95E2,2.97E2,7.08E2,6.7E1,2.18E2,7.74E2,6.23E2,4.01E2,6.01E2,4.1E1,1.28E2,3.67E2,2E1,2.77E2,1E1,6.98E2,2.4E1,4.3E1,4.2E1,1.76E2,6.54E2,1.2E2,2.67E2,3.56E2,1.13E2,2.88E2,3.11E2,2.9E2,2.5E1,1.6E1,3.2E1,9.6E1,3.3E1,3.34E2,1.7E1,3E0,1.63E2,1.14E2,6E0,4E0,3.09E2,3.89E2,3E0,2.1E1,1.9E1,2.4E1,1.3E1,2.9E1,1.69E2,7E0,2.24E2,4.3E2,9E0,1.11E2],"tree_param":{"num_deleted":"0","num_feature":"6","num_nodes":"63","size_leaf_vector":"1"}},{"base_weights":[-2.2100996E-5,1.1875321E-2,-1.45933E-2,1.5872933E-2,7.447693E-3,-6.8617994E-3,-1.8243963E-2,1.446599E-2,1.9744065E-2,9.991518E-3,4.9675647E-3,-1.184162E-2,-4.77099E-3,-2.1111837E-2,-1.5405287E-2,1.9464236E-2,1.3701627E-2,2.4397837E-2,1.7841758E-2,8.977121E-3,1.458402E-2,2.7123706E-3,8.026264E-3,-1.9643323E-3,-1.1154492E-2,-2.5879772E-2,-4.2094556E-3,-1.9667398E-2,-2.656304E-2,-2.6278518E-2,-1.427915E-2,7.976711E-4,1.2363507E-3,6.215041E-4,8.207878E-4,3.899296E-4,1.2636114E-3,9.2286913E-4,2.3436878E-5,5.18965E-4,2.870963E-4,7.6921744E-4,-1.6094506E-4,-1.7396271E-3,1.4677555E-4,2.763037E-4,7.675697E-4,-7.6172093E-4,-3.6949685E-4,-2.290758E-3,-8.155455E-5,-1.4549419E-3,-1.8597585E-4,-1.2835566E-3,-9.1930473E-4,-1.0887273E-3,-1.6493927E-3,-4.406375E-4,-1.4593956E-3,-7.9500716E-4,-3.9122693E-4],"categories":[],"categories_nodes":[],"categories_segments":[],"categories_sizes":[],"default_left":[0,0,0,0,0,0,0,0,0,0,0,0,0,0,0,0,0,0,0,0,0,0,0,0,0,0,0,0,0,0,0,0,0,0,0,0,0,0,0,0,0,0,0,0,0,0,0,0,0,0,0,0,0,0,0,0,0,0,0,0,0],"id":19,"left_children":[1,3,5,7,9,11,13,15,17,19,21,23,25,27,29,31,33,35,37,39,41,43,45,-1,47,49,51,53,55,57,59,-1,-1,-1,-1,-1,-1,-1,-1,-1,-1,-1,-1,-1,-1,-1,-1,-1,-1,-1,-1,-1,-1,-1,-1,-1,-1,-1,-1,-1,-1],"loss_changes":[7.327915E-1,4.1069508E-2,5.350247E-2,6.369978E-3,6.9281384E-3,6.305147E-3,1.0176629E-2,3.171742E-3,2.4241805E-3,2.4080276E-3,3.8548838E-3,2.9562656E-3,5.011691E-3,4.509002E-3,7.608354E-3,1.7672852E-3,2.5016218E-3,1.1237077E-3,2.4833381E-3,1.977209E-3,1.4315955E-3,2.8220124E-3,4.27395E-3,0E0,2.6059803E-3,5.2427473E-3,5.037748E-3,3.443554E-3,3.311947E-3,2.7916655E-3,6.080076E-3,0E0,0E0,0E0,0E0,0E0,0E0,0E0,0E0,0E0,0E0,0E0,0E0,0E0,0E0,0E0,0E0,0E0,0E0,0E0,0E0,0E0,0E0,0E0,0E0,0E0,0E0,0E0,0E0,0E0,0E0],"parents":[2147483647,0,0,1,1,2,2,3,3,4,4,5,5,6,6,7,7,8,8,9,9,10,10,11,11,12,12,13,13,14,14,15,15,16,16,17,17,18,18,19,19,20,20,21,21,22,22,24,24,25,25,26,26,27,27,28,28,29,29,30,30],"right_children":[2,4,6,8,10,12,14,16,18,20,22,24,26,28,30,32,34,36,38,40,42,44,46,-1,48,50,52,54,56,58,60,-1,-1,-1,-1,-1,-1,-1,-1,-1,-1,-1,-1,-1,-1,-1,-1,-1,-1,-1,-1,-1,-1,-1,-1,-1,-1,-1,-1,-1,-1],"split_conditions":[-8.263927E-3,-8.5762966E-1,6.409895E-1,3.655319E-1,-5.674668E-1,-7.03055E-1,-8.06359E-1,-1.2206112E0,-1.1650245E0,1.05032E0,-6.945509E-2,4.5210286E-3,-5.603276E-1,-2.5047013E-1,-4.167762E-1,1.768324E-1,3.761204E-1,-4.871821E-1,2.74324E0,-1.3087878E-1,2.4508312E0,-4.3016076E-1,2.9927245E-1,-1.9643323E-3,-4.0526253E-1,-3.730767E-1,-9.9358606E-1,-8.2493013E-1,1.277458E0,8.177554E-1,-9.439936E-2,7.976711E-4,1.2363507E-3,6.215041E-4,8.207878E-4,3.899296E-4,1.2636114E-3,9.2286913E-4,2.3436878E-5,5.18965E-4,2.870963E-4,7.6921744E-4,-1.6094506E-4,-1.7396271E-3,1.4677555E-4,2.763037E-4,7.675697E-4,-7.6172093E-4,-3.6949685E-4,-2.290758E-3,-8.155455E-5,-1.4549419E-3,-1.8597585E-4,-1.2835566E-3,-9.1930473E-4,-1.0887273E-3,-1.6493927E-3,-4.406375E-4,-1.4593956E-3,-7.9500716E-4,-3.9122693E-4],"split_indices":[0,0,0,5,0,1,1,0,0,1,3,0,2,3,5,2,3,3,3,5,3,5,1,0,2,5,4,4,0,0,1,0,0,0,0,0,0,0,0,0,0,0,0,0,0,0,0,0,0,0,0,0,0,0,0,0,0,0,0,0,0],"split_type":[0,0,0,0,0,0,0,0,0,0,0,0,0,0,0,0,0,0,0,0,0,0,0,0,0,0,0,0,0,0,0,0,0,0,0,0,0,0,0,0,0,0,0,0,0,0,0,0,0,0,0,0,0,0,0,0,0,0,0,0,0],"sum_hessian":[4.225E3,2.326E3,1.899E3,1.221E3,1.105E3,6.1E2,1.289E3,8.99E2,3.22E2,5.44E2,5.61E2,1.79E2,4.31E2,6.38E2,6.51E2,1.16E2,7.83E2,9E1,2.32E2,4.48E2,9.6E1,3.24E2,2.37E2,3E0,1.76E2,1E1,4.21E2,5.08E2,1.3E2,5.9E1,5.92E2,7.2E1,4.4E1,5.37E2,2.46E2,5E0,8.5E1,2.24E2,8E0,3.11E2,1.37E2,9.2E1,4E0,1E0,3.23E2,1.78E2,5.9E1,8.3E1,9.3E1,5E0,5E0,7E0,4.14E2,8.6E1,4.22E2,7.7E1,5.3E1,9E0,5E1,4.72E2,1.2E2],"tree_param":{"num_deleted":"0","num_feature":"6","num_nodes":"61","size_leaf_vector":"1"}},{"base_weights":[-2.2937493E-5,1.0595592E-2,-1.479157E-2,1.3688089E-2,4.081357E-3,-9.877889E-3,-1.8616568E-2,1.6735187E-2,1.1325158E-2,6.447035E-3,7.599355E-4,-1.0820299E-2,9.337681E-5,-1.9289445E-2,-1.0361441E-2,1.48127405E-2,1.9870922E-2,1.0900398E-2,2.2695059E-2,3.584196E-4,7.3353266E-3,-1.0221961E-2,1.5748988E-3,-3.6629435E-2,-1.0398667E-2,-2.4846515E-3,1.7269857E-2,-1.6818425E-2,-2.1245802E-2,-2.8550677E-2,-4.73198E-3,5.396468E-4,7.916188E-4,4.2654132E-4,1.0415445E-3,4.4616495E-4,6.1633956E-4,1.6900258E-3,8.894647E-4,-8.005768E-4,9.0681126E-5,5.303697E-4,2.8451683E-4,2.6664854E-4,-1.0301243E-3,1.7876281E-4,-1.5910984E-4,-9.533817E-4,-2.19704E-3,-6.5207406E-4,-4.1356529E-4,6.7796755E-5,-5.760675E-4,-5.9429807E-5,1.135675E-3,-7.6147495E-4,-1.3099489E-3,-1.1845314E-3,-8.009976E-4,-2.3165797E-3,-7.899627E-4,-4.6358755E-6,-1.0748784E-3],"categories":[],"categories_nodes":[],"categories_segments":[],"categories_sizes":[],"default_left":[0,0,0,0,0,0,0,0,0,0,0,0,0,0,0,0,0,0,0,0,0,0,0,0,0,0,0,0,0,0,0,0,0,0,0,0,0,0,0,0,0,0,0,0,0,0,0,0,0,0,0,0,0,0,0,0,0,0,0,0,0,0,0],"id":20,"left_children":[1,3,5,7,9,11,13,15,17,19,21,23,25,27,29,31,33,35,37,39,41,43,45,47,49,51,53,55,57,59,61,-1,-1,-1,-1,-1,-1,-1,-1,-1,-1,-1,-1,-1,-1,-1,-1,-1,-1,-1,-1,-1,-1,-1,-1,-1,-1,-1,-1,-1,-1,-1,-1],"loss_changes":[6.62883E-1,4.9481332E-2,3.304532E-2,1.1813015E-2,6.22603E-3,7.2930977E-3,5.3159595E-3,4.082173E-3,4.30198E-3,2.5014915E-3,2.9784967E-3,7.334411E-3,3.054048E-3,4.0756166E-3,7.749361E-3,1.6899481E-3,2.7941987E-3,2.4563223E-3,1.19658E-3,1.4583352E-3,2.1141786E-3,3.823645E-3,2.9517873E-3,5.7456084E-4,3.822066E-3,2.0979953E-3,9.3132816E-4,5.712047E-3,6.110847E-3,3.3491729E-3,4.6648043E-3,0E0,0E0,0E0,0E0,0E0,0E0,0E0,0E0,0E0,0E0,0E0,0E0,0E0,0E0,0E0,0E0,0E0,0E0,0E0,0E0,0E0,0E0,0E0,0E0,0E0,0E0,0E0,0E0,0E0,0E0,0E0,0E0],"parents":[2147483647,0,0,1,1,2,2,3,3,4,4,5,5,6,6,7,7,8,8,9,9,10,10,11,11,12,12,13,13,14,14,15,15,16,16,17,17,18,18,19,19,20,20,21,21,22,22,23,23,24,24,25,25,26,26,27,27,28,28,29,29,30,30],"right_children":[2,4,6,8,10,12,14,16,18,20,22,24,26,28,30,32,34,36,38,40,42,44,46,48,50,52,54,56,58,60,62,-1,-1,-1,-1,-1,-1,-1,-1,-1,-1,-1,-1,-1,-1,-1,-1,-1,-1,-1,-1,-1,-1,-1,-1,-1,-1,-1,-1,-1,-1,-1,-1],"split_conditions":[1.7350478E-1,-6.3695025E-1,8.889064E-1,-1.02439E0,-2.0837627E-1,3.8861638E-1,-9.402509E-2,1.4718242E-1,2.3513913E0,-7.3376703E-1,-4.901032E-1,-4.3016076E-1,1.3099759E0,1.2907988E0,-1.1469828E0,-1.9526102E-1,-4.7325787E-1,2.4622446E-1,6.1569043E-2,-6.035982E-1,-3.9418653E-1,-4.0260756E-1,-8.762217E-2,-6.125002E-1,-4.0526253E-1,8.074162E-1,-3.8310596E-1,-2.8887922E-1,-4.2258176E-1,-2.3998748E-1,-1.37581555E-2,5.396468E-4,7.916188E-4,4.2654132E-4,1.0415445E-3,4.4616495E-4,6.1633956E-4,1.6900258E-3,8.894647E-4,-8.005768E-4,9.0681126E-5,5.303697E-4,2.8451683E-4,2.6664854E-4,-1.0301243E-3,1.7876281E-4,-1.5910984E-4,-9.533817E-4,-2.19704E-3,-6.5207406E-4,-4.1356529E-4,6.7796755E-5,-5.760675E-4,-5.9429807E-5,1.135675E-3,-7.6147495E-4,-1.3099489E-3,-1.1845314E-3,-8.009976E-4,-2.3165797E-3,-7.899627E-4,-4.6358755E-6,-1.0748784E-3],"split_indices":[0,0,0,0,0,1,2,5,1,1,2,5,1,0,1,2,3,1,4,0,4,5,5,3,2,1,4,2,2,5,3,0,0,0,0,0,0,0,0,0,0,0,0,0,0,0,0,0,0,0,0,0,0,0,0,0,0,0,0,0,0,0,0],"split_type":[0,0,0,0,0,0,0,0,0,0,0,0,0,0,0,0,0,0,0,0,0,0,0,0,0,0,0,0,0,0,0,0,0,0,0,0,0,0,0,0,0,0,0,0,0,0,0,0,0,0,0,0,0,0,0,0,0,0,0,0,0,0,0],"sum_hessian":[4.225E3,2.458E3,1.767E3,1.666E3,7.92E2,7.75E2,9.92E2,7.25E2,9.41E2,4.62E2,3.3E2,7.08E2,6.7E1,9.16E2,7.6E1,4.53E2,2.72E2,9.09E2,3.2E1,5.9E1,4.03E2,2.2E1,3.08E2,1E1,6.98E2,5.9E1,8E0,4.09E2,5.07E2,1.7E1,5.9E1,9.4E1,3.59E2,2.2E1,2.5E2,3.84E2,5.25E2,8E0,2.4E1,4E0,5.5E1,1.33E2,2.7E2,9E0,1.3E1,2.17E2,9.1E1,4E0,6E0,3.09E2,3.89E2,4.2E1,1.7E1,2E0,6E0,3.52E2,5.7E1,3.43E2,1.64E2,6E0,1.1E1,4.7E1,1.2E1],"tree_param":{"num_deleted":"0","num_feature":"6","num_nodes":"63","size_leaf_vector":"1"}},{"base_weights":[-2.3226672E-5,1.00681875E-2,-1.4058727E-2,1.3469912E-2,4.7059883E-3,-9.3887085E-3,-1.7694049E-2,1.5902292E-2,1.118573E-2,6.806242E-3,7.196904E-4,-1.0869903E-2,-3.4796079E-3,-2.2066785E-2,-1.6435567E-2,1.4075041E-2,1.8882766E-2,1.0724601E-2,2.2341086E-2,5.5855787E-3,1.0417105E-2,-1.5802982E-3,4.4742776E-3,-3.508437E-2,-1.0415428E-2,-1.8182306E-2,-1.6822641E-3,-2.9156642E-2,-2.0219719E-2,-1.6717069E-2,1.3507375E-3,3.979328E-4,7.3396193E-4,4.0614206E-4,9.896754E-4,1.2483726E-4,5.514207E-4,1.1965524E-3,2.7209521E-6,2.3902874E-4,7.179663E-4,1.0983417E-3,4.0838897E-4,1.37443785E-5,-6.456404E-4,2.1844856E-3,1.7447172E-4,-2.1099853E-3,-9.053016E-4,-3.8376462E-4,-6.512578E-4,-3.8761992E-4,-1.3295979E-3,-1.4508757E-4,8.262982E-4,-1.9530747E-3,-1.1781245E-3,-1.0515259E-3,-2.3139268E-5,-1.3424879E-3,-8.140076E-4,1.0453438E-4,-1.8821657E-4],"categories":[],"categories_nodes":[],"categories_segments":[],"categories_sizes":[],"default_left":[0,0,0,0,0,0,0,0,0,0,0,0,0,0,0,0,0,0,0,0,0,0,0,0,0,0,0,0,0,0,0,0,0,0,0,0,0,0,0,0,0,0,0,0,0,0,0,0,0,0,0,0,0,0,0,0,0,0,0,0,0,0,0],"id":21,"left_children":[1,3,5,7,9,11,13,15,17,19,21,23,25,27,29,31,33,35,37,39,41,43,45,47,49,51,53,55,57,59,61,-1,-1,-1,-1,-1,-1,-1,-1,-1,-1,-1,-1,-1,-1,-1,-1,-1,-1,-1,-1,-1,-1,-1,-1,-1,-1,-1,-1,-1,-1,-1,-1],"loss_changes":[5.9870386E-1,4.4790566E-2,2.9849261E-2,8.178353E-3,7.99896E-3,6.7541376E-3,5.10183E-3,3.6880672E-3,3.767617E-3,2.701005E-3,2.8654237E-3,6.457582E-3,4.1182633E-3,2.2783503E-3,3.9029121E-3,1.5609264E-3,2.514474E-3,1.8472597E-3,1.0617469E-3,3.2509193E-3,3.8992986E-3,4.334475E-3,4.7138003E-3,5.6480337E-4,4.262142E-3,1.2849509E-3,3.1788172E-3,1.46221E-3,2.8256103E-3,2.9407889E-3,5.7073677E-5,0E0,0E0,0E0,0E0,0E0,0E0,0E0,0E0,0E0,0E0,0E0,0E0,0E0,0E0,0E0,0E0,0E0,0E0,0E0,0E0,0E0,0E0,0E0,0E0,0E0,0E0,0E0,0E0,0E0,0E0,0E0,0E0],"parents":[2147483647,0,0,1,1,2,2,3,3,4,4,5,5,6,6,7,7,8,8,9,9,10,10,11,11,12,12,13,13,14,14,15,15,16,16,17,17,18,18,19,19,20,20,21,21,22,22,23,23,24,24,25,25,26,26,27,27,28,28,29,29,30,30],"right_children":[2,4,6,8,10,12,14,16,18,20,22,24,26,28,30,32,34,36,38,40,42,44,46,48,50,52,54,56,58,60,62,-1,-1,-1,-1,-1,-1,-1,-1,-1,-1,-1,-1,-1,-1,-1,-1,-1,-1,-1,-1,-1,-1,-1,-1,-1,-1,-1,-1,-1,-1,-1,-1],"split_conditions":[1.7350478E-1,-7.169952E-1,8.889064E-1,-1.02439E0,-2.0837627E-1,-2.45994E-2,-5.344064E-1,1.4718242E-1,2.3513913E0,6.2314427E-1,-1.2200526E-1,-4.3016076E-1,-4.107682E-1,-7.81603E-1,6.0639226E-1,-3.8310596E-1,-4.7325787E-1,-4.0844765E-1,-7.559059E-1,6.201958E-1,-4.657799E-1,-1.8368486E-1,-1.11395836E-1,-4.2106318E-1,5.820675E-1,-4.1997823E-1,1.122912E0,-1.2084068E0,2.277464E0,-1.4513106E0,-4.7325787E-1,3.979328E-4,7.3396193E-4,4.0614206E-4,9.896754E-4,1.2483726E-4,5.514207E-4,1.1965524E-3,2.7209521E-6,2.3902874E-4,7.179663E-4,1.0983417E-3,4.0838897E-4,1.37443785E-5,-6.456404E-4,2.1844856E-3,1.7447172E-4,-2.1099853E-3,-9.053016E-4,-3.8376462E-4,-6.512578E-4,-3.8761992E-4,-1.3295979E-3,-1.4508757E-4,8.262982E-4,-1.9530747E-3,-1.1781245E-3,-1.0515259E-3,-2.3139268E-5,-1.3424879E-3,-8.140076E-4,1.0453438E-4,-1.8821657E-4],"split_indices":[0,0,0,0,0,1,2,5,1,1,2,5,5,4,1,4,3,5,0,2,4,2,2,1,0,5,1,1,0,1,3,0,0,0,0,0,0,0,0,0,0,0,0,0,0,0,0,0,0,0,0,0,0,0,0,0,0,0,0,0,0,0,0],"split_type":[0,0,0,0,0,0,0,0,0,0,0,0,0,0,0,0,0,0,0,0,0,0,0,0,0,0,0,0,0,0,0,0,0,0,0,0,0,0,0,0,0,0,0,0,0,0,0,0,0,0,0,0,0,0,0,0,0,0,0,0,0,0,0],"sum_hessian":[4.225E3,2.458E3,1.767E3,1.503E3,9.55E2,7.75E2,9.92E2,7.25E2,7.78E2,6.25E2,3.3E2,6.19E2,1.56E2,2.18E2,7.74E2,4.53E2,2.72E2,7.49E2,2.9E1,4.69E2,1.56E2,2.05E2,1.25E2,1E1,6.09E2,1.6E1,1.4E2,4.2E1,1.76E2,7.62E2,1.2E1,4.2E1,4.11E2,2.2E1,2.5E2,2.7E1,7.22E2,2.7E1,2E0,4.31E2,3.8E1,2.4E1,1.32E2,1.77E2,2.8E1,2E0,1.23E2,6E0,4E0,2.99E2,3.1E2,8E0,8E0,1.32E2,8E0,1.3E1,2.9E1,1.69E2,7E0,2.9E1,7.33E2,1.1E1,1E0],"tree_param":{"num_deleted":"0","num_feature":"6","num_nodes":"63","size_leaf_vector":"1"}},{"base_weights":[-2.275456E-5,1.0199356E-2,-1.2542138E-2,1.4303541E-2,6.962986E-3,-5.8821538E-3,-1.5686873E-2,1.3728348E-2,2.1726195E-2,9.001621E-3,4.2590187E-3,-1.5839843E-2,-5.005051E-3,-1.8280677E-2,-1.3120726E-2,1.7658984E-2,1.28288735E-2,-4.7285558E-4,2.3038976E-2,8.272676E-3,1.3297248E-2,-1.5263002E-3,4.4377614E-3,-1.6997836E-3,-1.9421915E-2,-5.3901114E-3,1.4807983E-2,-1.6903946E-2,-2.349041E-2,-2.3338368E-2,-1.2064774E-2,4.776592E-4,9.918789E-4,6.500419E-4,-4.0091193E-4,-5.686075E-4,2.5475025E-4,1.3484311E-3,9.026968E-4,4.2594058E-4,-6.072283E-4,7.2322314E-4,-1.4045984E-4,1.1789546E-4,3.6311895E-4,-6.406993E-4,3.2408792E-4,-1.6919756E-3,-6.641725E-4,-1.3571426E-4,-4.1127723E-4,1.5664996E-4,1.0515916E-3,-1.6070182E-3,-8.2199037E-4,-1.8375926E-3,-1.0595222E-3,-3.6569565E-4,-1.3011402E-3,-6.7683303E-4,-3.1356837E-4],"categories":[],"categories_nodes":[],"categories_segments":[],"categories_sizes":[],"default_left":[0,0,0,0,0,0,0,0,0,0,0,0,0,0,0,0,0,0,0,0,0,0,0,0,0,0,0,0,0,0,0,0,0,0,0,0,0,0,0,0,0,0,0,0,0,0,0,0,0,0,0,0,0,0,0,0,0,0,0,0,0],"id":22,"left_children":[1,3,5,7,9,11,13,15,17,19,21,23,25,27,29,31,33,35,37,39,41,-1,43,45,47,49,51,53,55,57,59,-1,-1,-1,-1,-1,-1,-1,-1,-1,-1,-1,-1,-1,-1,-1,-1,-1,-1,-1,-1,-1,-1,-1,-1,-1,-1,-1,-1,-1,-1],"loss_changes":[5.409482E-1,3.0809164E-2,3.9701074E-2,4.077941E-3,7.1443245E-3,5.2571446E-3,8.346528E-3,3.1463355E-3,2.1091476E-3,2.2133999E-3,3.629744E-3,2.4488727E-3,4.375062E-3,4.186064E-3,6.753072E-3,2.9008538E-3,2.900511E-3,3.6136986E-4,8.4519386E-4,3.304638E-3,2.0333994E-3,0E0,3.272757E-3,1.0833016E-3,3.002069E-3,4.173355E-3,7.3340395E-4,3.071189E-3,3.2168329E-3,2.390664E-3,4.971765E-3,0E0,0E0,0E0,0E0,0E0,0E0,0E0,0E0,0E0,0E0,0E0,0E0,0E0,0E0,0E0,0E0,0E0,0E0,0E0,0E0,0E0,0E0,0E0,0E0,0E0,0E0,0E0,0E0,0E0,0E0],"parents":[2147483647,0,0,1,1,2,2,3,3,4,4,5,5,6,6,7,7,8,8,9,9,10,10,11,11,12,12,13,13,14,14,15,15,16,16,17,17,18,18,19,19,20,20,22,22,23,23,24,24,25,25,26,26,27,27,28,28,29,29,30,30],"right_children":[2,4,6,8,10,12,14,16,18,20,22,24,26,28,30,32,34,36,38,40,42,-1,44,46,48,50,52,54,56,58,60,-1,-1,-1,-1,-1,-1,-1,-1,-1,-1,-1,-1,-1,-1,-1,-1,-1,-1,-1,-1,-1,-1,-1,-1,-1,-1,-1,-1,-1,-1],"split_conditions":[-8.263927E-3,-9.3044835E-1,6.409895E-1,2.5663753E0,-5.674668E-1,-5.374148E-1,-8.06359E-1,-1.205047E0,-5.011063E-1,1.3099759E0,-4.3016076E-1,-4.0412277E-1,1.122912E0,-2.5047013E-1,-4.167762E-1,-3.200913E-1,4.8318753E0,-1.2256141E0,-1.1305606E0,1.237384E0,2.0888011E0,-1.5263002E-3,-6.945509E-2,-8.479788E-1,-3.9302477E-1,-4.1756094E-1,2.835666E-1,-1.5685747E0,-1.8084896E-1,8.177554E-1,-2.3738228E-1,4.776592E-4,9.918789E-4,6.500419E-4,-4.0091193E-4,-5.686075E-4,2.5475025E-4,1.3484311E-3,9.026968E-4,4.2594058E-4,-6.072283E-4,7.2322314E-4,-1.4045984E-4,1.1789546E-4,3.6311895E-4,-6.406993E-4,3.2408792E-4,-1.6919756E-3,-6.641725E-4,-1.3571426E-4,-4.1127723E-4,1.5664996E-4,1.0515916E-3,-1.6070182E-3,-8.2199037E-4,-1.8375926E-3,-1.0595222E-3,-3.6569565E-4,-1.3011402E-3,-6.7683303E-4,-3.1356837E-4],"split_indices":[0,0,0,1,0,2,1,0,3,1,5,5,1,3,5,3,3,0,0,1,3,0,3,4,5,3,0,1,3,0,2,0,0,0,0,0,0,0,0,0,0,0,0,0,0,0,0,0,0,0,0,0,0,0,0,0,0,0,0,0,0],"split_type":[0,0,0,0,0,0,0,0,0,0,0,0,0,0,0,0,0,0,0,0,0,0,0,0,0,0,0,0,0,0,0,0,0,0,0,0,0,0,0,0,0,0,0,0,0,0,0,0,0,0,0,0,0,0,0,0,0,0,0,0,0],"sum_hessian":[4.225E3,2.326E3,1.899E3,1.024E3,1.302E3,6.1E2,1.289E3,9.53E2,7.1E1,7.41E2,5.61E2,4.8E1,5.62E2,6.38E2,6.51E2,1.74E2,7.79E2,4E0,6.7E1,6.36E2,1.05E2,2E0,5.59E2,1E1,3.8E1,5.52E2,1E1,5.08E2,1.3E2,5.9E1,5.92E2,3.8E1,1.36E2,7.73E2,6E0,1E0,3E0,3.5E1,3.2E1,6.29E2,7E0,9.8E1,7E0,3.23E2,2.36E2,4E0,6E0,1E1,2.8E1,2.85E2,2.67E2,4E0,6E0,1.3E1,4.95E2,1.7E1,1.13E2,9E0,5E1,4.71E2,1.21E2],"tree_param":{"num_deleted":"0","num_feature":"6","num_nodes":"61","size_leaf_vector":"1"}},{"base_weights":[-2.3269366E-5,9.102538E-3,-1.2715768E-2,1.2782754E-2,5.043699E-3,-8.470977E-3,-1.6020142E-2,1.226133E-2,2.105938E-2,6.754207E-3,6.8242656E-4,-9.851349E-3,-2.965871E-3,-2.0127153E-2,-1.4838907E-2,1.6784428E-2,1.14891855E-2,-5.5439177E-4,2.1643639E-2,1.0877302E-3,7.373244E-3,-9.562412E-3,1.4427789E-3,-3.302767E-2,-9.417266E-3,-1.6822653E-2,-1.2741605E-3,-2.6879532E-2,-1.8373031E-2,-1.5104891E-2,1.9137355E-3,4.54388E-4,9.426468E-4,5.814107E-4,-2.0037801E-4,8.7394007E-4,1.3281887E-3,-3.1371298E-4,1.5246717E-4,3.172792E-4,4.9448584E-4,-1.798594E-4,-1.8498965E-3,1.669294E-4,-1.5325734E-4,-8.375997E-4,-1.9967458E-3,-8.6185486E-5,-5.126714E-4,-3.4110414E-4,-1.247702E-3,-2.8668213E-4,1.7311543E-4,-1.8188836E-3,-1.0775541E-3,-2.47554E-4,-9.7477314E-4,-7.7512837E-4,-2.7680025E-4,1.3142577E-4,-1.6659051E-4],"categories":[],"categories_nodes":[],"categories_segments":[],"categories_sizes":[],"default_left":[0,0,0,0,0,0,0,0,0,0,0,0,0,0,0,0,0,0,0,0,0,0,0,0,0,0,0,0,0,0,0,0,0,0,0,0,0,0,0,0,0,0,0,0,0,0,0,0,0,0,0,0,0,0,0,0,0,0,0,0,0],"id":23,"left_children":[1,3,5,7,9,11,13,15,17,19,21,23,25,27,29,31,33,-1,35,37,39,41,43,45,47,49,51,53,55,57,59,-1,-1,-1,-1,-1,-1,-1,-1,-1,-1,-1,-1,-1,-1,-1,-1,-1,-1,-1,-1,-1,-1,-1,-1,-1,-1,-1,-1,-1,-1],"loss_changes":[4.8961034E-1,3.6666602E-2,2.4662942E-2,5.3046346E-3,8.731045E-3,5.8676787E-3,4.5187175E-3,4.050523E-3,1.6486496E-3,2.9420033E-3,2.5921825E-3,5.92646E-3,3.6589066E-3,2.1000952E-3,3.4822524E-3,2.6147775E-3,2.2894442E-3,0E0,1.0520704E-3,1.232208E-3,1.8974915E-3,3.6310684E-3,2.6509988E-3,5.676318E-4,3.906496E-3,1.2121764E-3,2.9980815E-3,1.3922658E-3,2.5700144E-3,2.8176308E-3,5.7500027E-5,0E0,0E0,0E0,0E0,0E0,0E0,0E0,0E0,0E0,0E0,0E0,0E0,0E0,0E0,0E0,0E0,0E0,0E0,0E0,0E0,0E0,0E0,0E0,0E0,0E0,0E0,0E0,0E0,0E0,0E0],"parents":[2147483647,0,0,1,1,2,2,3,3,4,4,5,5,6,6,7,7,8,8,9,9,10,10,11,11,12,12,13,13,14,14,15,15,16,16,18,18,19,19,20,20,21,21,22,22,23,23,24,24,25,25,26,26,27,27,28,28,29,29,30,30],"right_children":[2,4,6,8,10,12,14,16,18,20,22,24,26,28,30,32,34,-1,36,38,40,42,44,46,48,50,52,54,56,58,60,-1,-1,-1,-1,-1,-1,-1,-1,-1,-1,-1,-1,-1,-1,-1,-1,-1,-1,-1,-1,-1,-1,-1,-1,-1,-1,-1,-1,-1,-1],"split_conditions":[1.7350478E-1,-8.2205415E-1,8.889064E-1,2.5663753E0,-2.0837627E-1,-2.45994E-2,-5.344064E-1,-1.205047E0,-7.769502E-1,-6.946791E-1,-4.901032E-1,-4.3016076E-1,-4.107682E-1,-7.81603E-1,6.0639226E-1,-3.200913E-1,4.8318753E0,-5.5439177E-4,5.571354E-1,-6.8924695E-1,6.538563E-1,-3.1191E-1,-8.762217E-2,-6.125002E-1,-4.107682E-1,-4.1997823E-1,-3.416345E-1,-1.2084068E0,-7.026136E-1,1.1124797E-1,-4.7325787E-1,4.54388E-4,9.426468E-4,5.814107E-4,-2.0037801E-4,8.7394007E-4,1.3281887E-3,-3.1371298E-4,1.5246717E-4,3.172792E-4,4.9448584E-4,-1.798594E-4,-1.8498965E-3,1.669294E-4,-1.5325734E-4,-8.375997E-4,-1.9967458E-3,-8.6185486E-5,-5.126714E-4,-3.4110414E-4,-1.247702E-3,-2.8668213E-4,1.7311543E-4,-1.8188836E-3,-1.0775541E-3,-2.47554E-4,-9.7477314E-4,-7.7512837E-4,-2.7680025E-4,1.3142577E-4,-1.6659051E-4],"split_indices":[0,0,0,1,0,1,2,0,4,1,2,5,5,4,1,3,3,0,3,4,1,5,5,3,5,5,4,1,4,5,3,0,0,0,0,0,0,0,0,0,0,0,0,0,0,0,0,0,0,0,0,0,0,0,0,0,0,0,0,0,0],"split_type":[0,0,0,0,0,0,0,0,0,0,0,0,0,0,0,0,0,0,0,0,0,0,0,0,0,0,0,0,0,0,0,0,0,0,0,0,0,0,0,0,0,0,0,0,0,0,0,0,0,0,0,0,0,0,0,0,0,0,0,0,0],"sum_hessian":[4.225E3,2.458E3,1.767E3,1.288E3,1.17E3,7.75E2,9.92E2,1.214E3,7.4E1,8.4E2,3.3E2,6.19E2,1.56E2,2.18E2,7.74E2,1.74E2,1.04E3,1E0,7.3E1,8.3E1,7.57E2,2.2E1,3.08E2,1E1,6.09E2,1.6E1,1.4E2,4.2E1,1.76E2,7.62E2,1.2E1,3.8E1,1.36E2,1.031E3,9E0,4.2E1,3.1E1,1.7E1,6.6E1,5.4E2,2.17E2,1.9E1,3E0,2.17E2,9.1E1,4E0,6E0,6E1,5.49E2,8E0,8E0,7.2E1,6.8E1,1.3E1,2.9E1,1.4E1,1.62E2,7.31E2,3.1E1,1.1E1,1E0],"tree_param":{"num_deleted":"0","num_feature":"6","num_nodes":"61","size_leaf_vector":"1"}},{"base_weights":[-2.4065072E-5,8.6482605E-3,-1.2085843E-2,1.2345274E-2,4.992041E-3,-8.054051E-3,-1.5224398E-2,1.1170558E-2,1.55802565E-2,6.572224E-3,6.4219686E-4,-8.873874E-3,6.1226153E-4,-1.5818086E-2,-7.956396E-3,1.006072E-2,1.3968993E-2,1.1206516E-2,1.7120067E-2,3.5446973E-3,7.540985E-3,-1.5187009E-3,4.1699964E-3,-3.163394E-2,-8.50301E-3,-6.971052E-3,5.1832823E-3,-3.098382E-2,-1.5514384E-2,-2.4993079E-2,-2.712784E-3,5.3590955E-4,2.0503132E-4,2.578478E-4,7.543407E-4,7.5988105E-4,2.5651473E-4,7.569424E-4,1.0520142E-3,-1.6221375E-3,1.9271682E-4,9.825254E-4,3.6665445E-4,5.4120037E-6,-6.651042E-4,2.0980865E-3,1.6110255E-4,-1.9163315E-3,-7.968694E-4,-3.1681784E-4,-5.4884155E-4,5.2736554E-4,-4.8573173E-4,6.7245535E-5,9.767181E-4,-1.8565111E-3,-4.4032038E-4,-1.0378363E-3,-7.3215936E-4,-2.1105697E-3,-6.433152E-4,-6.687202E-4,1.9058451E-4],"categories":[],"categories_nodes":[],"categories_segments":[],"categories_sizes":[],"default_left":[0,0,0,0,0,0,0,0,0,0,0,0,0,0,0,0,0,0,0,0,0,0,0,0,0,0,0,0,0,0,0,0,0,0,0,0,0,0,0,0,0,0,0,0,0,0,0,0,0,0,0,0,0,0,0,0,0,0,0,0,0,0,0],"id":24,"left_children":[1,3,5,7,9,11,13,15,17,19,21,23,25,27,29,31,33,35,37,39,41,43,45,47,49,51,53,55,57,59,61,-1,-1,-1,-1,-1,-1,-1,-1,-1,-1,-1,-1,-1,-1,-1,-1,-1,-1,-1,-1,-1,-1,-1,-1,-1,-1,-1,-1,-1,-1,-1,-1],"loss_changes":[4.421596E-1,3.3176914E-2,2.2249639E-2,4.469797E-3,8.505233E-3,5.518798E-3,4.1588694E-3,2.654694E-3,1.9834563E-3,2.636388E-3,2.5296165E-3,5.7156235E-3,2.39325E-3,3.7428886E-3,6.810898E-3,2.4952963E-3,2.4143234E-3,2.0318553E-3,1.5222058E-3,2.5988163E-3,1.5854426E-3,3.950638E-3,4.3786834E-3,5.4474734E-4,3.6770217E-3,1.352103E-3,2.3423736E-3,1.990309E-3,3.8110018E-3,3.2153428E-3,4.2246673E-3,0E0,0E0,0E0,0E0,0E0,0E0,0E0,0E0,0E0,0E0,0E0,0E0,0E0,0E0,0E0,0E0,0E0,0E0,0E0,0E0,0E0,0E0,0E0,0E0,0E0,0E0,0E0,0E0,0E0,0E0,0E0,0E0],"parents":[2147483647,0,0,1,1,2,2,3,3,4,4,5,5,6,6,7,7,8,8,9,9,10,10,11,11,12,12,13,13,14,14,15,15,16,16,17,17,18,18,19,19,20,20,21,21,22,22,23,23,24,24,25,25,26,26,27,27,28,28,29,29,30,30],"right_children":[2,4,6,8,10,12,14,16,18,20,22,24,26,28,30,32,34,36,38,40,42,44,46,48,50,52,54,56,58,60,62,-1,-1,-1,-1,-1,-1,-1,-1,-1,-1,-1,-1,-1,-1,-1,-1,-1,-1,-1,-1,-1,-1,-1,-1,-1,-1,-1,-1,-1,-1,-1,-1],"split_conditions":[1.7350478E-1,-8.5762966E-1,8.889064E-1,3.655319E-1,-2.0837627E-1,3.8861638E-1,-9.402509E-2,5.1536274E-1,9.581841E-1,-3.3730325E-1,-1.2200526E-1,-4.3016076E-1,-3.2697883E-1,-1.1737797E0,-1.1469828E0,6.201958E-1,-3.8848597E-1,8.358311E-1,6.5460503E-1,-1.1737797E0,-9.377529E-1,-1.7438725E-1,-1.11395836E-1,-4.2106318E-1,-4.3148518E-1,-4.239105E-1,6.287604E-1,-3.92251E-1,-1.3033347E0,-2.3998748E-1,-2.4602428E-1,5.3590955E-4,2.0503132E-4,2.578478E-4,7.543407E-4,7.5988105E-4,2.5651473E-4,7.569424E-4,1.0520142E-3,-1.6221375E-3,1.9271682E-4,9.825254E-4,3.6665445E-4,5.4120037E-6,-6.651042E-4,2.0980865E-3,1.6110255E-4,-1.9163315E-3,-7.968694E-4,-3.1681784E-4,-5.4884155E-4,5.2736554E-4,-4.8573173E-4,6.7245535E-5,9.767181E-4,-1.8565111E-3,-4.4032038E-4,-1.0378363E-3,-7.3215936E-4,-2.1105697E-3,-6.433152E-4,-6.687202E-4,1.9058451E-4],"split_indices":[0,0,0,5,0,1,2,3,1,1,2,5,5,4,1,2,5,2,3,4,4,2,2,1,3,5,0,5,1,5,4,0,0,0,0,0,0,0,0,0,0,0,0,0,0,0,0,0,0,0,0,0,0,0,0,0,0,0,0,0,0,0,0],"split_type":[0,0,0,0,0,0,0,0,0,0,0,0,0,0,0,0,0,0,0,0,0,0,0,0,0,0,0,0,0,0,0,0,0,0,0,0,0,0,0,0,0,0,0,0,0,0,0,0,0,0,0,0,0,0,0,0,0,0,0,0,0,0,0],"sum_hessian":[4.225E3,2.458E3,1.767E3,1.221E3,1.237E3,7.75E2,9.92E2,8.99E2,3.22E2,9.07E2,3.3E2,7.08E2,6.7E1,9.16E2,7.6E1,6.47E2,2.52E2,8.6E1,2.36E2,2.21E2,6.86E2,2.05E2,1.25E2,1E1,6.98E2,2.5E1,4.2E1,1.6E1,9E2,1.7E1,5.9E1,5.82E2,6.5E1,2.9E1,2.23E2,5.1E1,3.5E1,1.6E2,7.6E1,1E0,2.2E2,1E1,6.76E2,1.81E2,2.4E1,2E0,1.23E2,6E0,4E0,3.74E2,3.24E2,3E0,2.2E1,3.4E1,8E0,1.2E1,4E0,1.25E2,7.75E2,6E0,1.1E1,2.2E1,3.7E1],"tree_param":{"num_deleted":"0","num_feature":"6","num_nodes":"63","size_leaf_vector":"1"}},{"base_weights":[-2.3729108E-5,8.420555E-3,-1.1213089E-2,1.1731757E-2,5.0075008E-3,-6.113202E-3,-1.3783303E-2,1.1242894E-2,1.9163797E-2,6.7271763E-3,1.9381534E-3,-1.0241637E-2,-3.9880187E-3,-1.4563466E-2,-7.57806E-3,1.5339199E-2,1.0496129E-2,-5.539298E-4,1.9729838E-2,4.463955E-3,8.2645025E-3,-1.9311666E-2,2.2349874E-3,-5.150317E-3,-1.3473752E-2,-2.3019126E-2,-3.3982694E-3,-3.0372238E-2,-1.4264671E-2,-2.5107436E-2,-5.0526266E-3,-1.1099205E-4,8.04202E-4,4.1539734E-4,5.788719E-4,1.1911956E-3,7.666018E-4,-3.653022E-5,3.0770997E-4,5.333212E-4,3.2568205E-4,-2.3831923E-4,-1.2696356E-3,-1.6671018E-3,1.1991513E-4,-3.481463E-4,1.207822E-3,-9.879862E-4,-4.0813463E-4,2.2793711E-4,-1.8688951E-3,-1.2804602E-3,-1.4651738E-4,-1.7826724E-3,-4.2270843E-4,-1.5968237E-3,-7.0066535E-4,-5.840887E-4,-1.6668612E-3,-1.6478464E-4,-9.1226085E-4],"categories":[],"categories_nodes":[],"categories_segments":[],"categories_sizes":[],"default_left":[0,0,0,0,0,0,0,0,0,0,0,0,0,0,0,0,0,0,0,0,0,0,0,0,0,0,0,0,0,0,0,0,0,0,0,0,0,0,0,0,0,0,0,0,0,0,0,0,0,0,0,0,0,0,0,0,0,0,0,0,0],"id":25,"left_children":[1,3,5,7,9,11,13,15,17,19,21,23,25,27,29,31,33,-1,35,37,39,41,43,45,47,49,51,53,55,57,59,-1,-1,-1,-1,-1,-1,-1,-1,-1,-1,-1,-1,-1,-1,-1,-1,-1,-1,-1,-1,-1,-1,-1,-1,-1,-1,-1,-1,-1,-1],"loss_changes":[3.9939284E-1,2.7166113E-2,2.3745716E-2,4.224375E-3,6.25756E-3,5.319873E-3,5.737692E-3,3.3537745E-3,1.4853422E-3,2.6108623E-3,2.7428432E-3,3.3369418E-3,4.467327E-3,4.6304464E-3,5.9380326E-3,2.3244694E-3,2.2107586E-3,0E0,9.490922E-4,2.7263183E-3,1.8313751E-3,4.0967157E-4,2.5377092E-3,4.524177E-3,4.0452406E-3,4.922209E-3,4.01979E-3,1.897905E-3,4.2343885E-3,1.488898E-3,2.7444689E-3,0E0,0E0,0E0,0E0,0E0,0E0,0E0,0E0,0E0,0E0,0E0,0E0,0E0,0E0,0E0,0E0,0E0,0E0,0E0,0E0,0E0,0E0,0E0,0E0,0E0,0E0,0E0,0E0,0E0,0E0],"parents":[2147483647,0,0,1,1,2,2,3,3,4,4,5,5,6,6,7,7,8,8,9,9,10,10,11,11,12,12,13,13,14,14,15,15,16,16,18,18,19,19,20,20,21,21,22,22,23,23,24,24,25,25,26,26,27,27,28,28,29,29,30,30],"right_children":[2,4,6,8,10,12,14,16,18,20,22,24,26,28,30,32,34,-1,36,38,40,42,44,46,48,50,52,54,56,58,60,-1,-1,-1,-1,-1,-1,-1,-1,-1,-1,-1,-1,-1,-1,-1,-1,-1,-1,-1,-1,-1,-1,-1,-1,-1,-1,-1,-1,-1,-1],"split_conditions":[8.23425E-2,-8.5762966E-1,7.021349E-1,2.5663753E0,-3.6957788E-1,-6.863031E-1,-1.2790334E-1,-1.205047E0,-7.769502E-1,-2.0869742E-1,-5.4006165E-1,-3.5434687E-1,-5.603276E-1,-1.1737797E0,-4.179046E-1,-3.3530748E-1,1.931765E-1,-5.539298E-4,-1.1305606E0,-2.8425527E-1,-2.3790212E-1,-6.802104E-1,-4.3016076E-1,3.2042345E-1,-5.704536E-1,-5.857911E-1,-9.9358606E-1,-3.92251E-1,-1.5685747E0,-4.239105E-1,1.6882441E0,-1.1099205E-4,8.04202E-4,4.1539734E-4,5.788719E-4,1.1911956E-3,7.666018E-4,-3.653022E-5,3.0770997E-4,5.333212E-4,3.2568205E-4,-2.3831923E-4,-1.2696356E-3,-1.6671018E-3,1.1991513E-4,-3.481463E-4,1.207822E-3,-9.879862E-4,-4.0813463E-4,2.2793711E-4,-1.8688951E-3,-1.2804602E-3,-1.4651738E-4,-1.7826724E-3,-4.2270843E-4,-1.5968237E-3,-7.0066535E-4,-5.840887E-4,-1.6668612E-3,-1.6478464E-4,-9.1226085E-4],"split_indices":[0,0,0,1,0,1,1,0,4,3,2,5,2,4,5,2,1,0,0,1,4,4,5,3,4,1,4,5,1,5,0,0,0,0,0,0,0,0,0,0,0,0,0,0,0,0,0,0,0,0,0,0,0,0,0,0,0,0,0,0,0],"split_type":[0,0,0,0,0,0,0,0,0,0,0,0,0,0,0,0,0,0,0,0,0,0,0,0,0,0,0,0,0,0,0,0,0,0,0,0,0,0,0,0,0,0,0,0,0,